432 200
plane 0.312304 -0.226808 -0.434202 0.546044 -0.028732 -0.280321 -0.272566 0.124724 -0.013305 0.22121 0.078261 -0.005801 -0.084486 0.227638 -0.304134 -0.179472 -0.189211 0.399025 0.060602 -0.163606 -0.061513 -0.076674 -0.105178 0.290359 0.163608 0.115264 -0.269479 -0.186352 -0.147295 -0.119486 -0.231427 -0.033513 -0.011835 0.239402 -0.082007 -0.120285 -0.183954 -0.079982 -0.255819 0.301323 -0.200395 0.810093 -0.149127 -0.02772 -0.239381 0.07341 0.077373 -0.087894 -0.301199 -0.328067 0.036241 -0.367389 0.04604 -0.118414 -0.036174 -0.141706 0.061353 0.204414 0.227444 -0.164943 0.462666 -0.11337 -0.050741 0.005246 0.590361 -0.06457 0.229094 -0.047355 0.487312 0.498097 0.494049 -0.052696 -0.429722 0.016553 -0.142028 -0.722603 -0.535474 -0.865719 -0.210201 0.680109 -0.129871 0.097534 -0.419472 -0.326051 0.331613 0.39508 -0.223715 0.05538 0.170894 -0.134472 -0.353381 0.055519 0.309393 0.08072 0.338242 0.249356 0.471634 0.13677 0.12829 -0.363377 -0.305686 -0.125058 -0.619974 0.203624 -0.445921 -0.170178 -0.113951 -0.071126 0.204388 0.223073 -0.058836 0.319424 -0.038219 0.463891 -0.019474 0.032617 0.003513 -0.457028 -0.334605 0.426679 0.385321 0.236976 0.481167 0.331997 0.01708 0.263839 0.556976 -0.191056 -0.033457 -0.058075 0.27547 -0.062715 -0.109618 -0.075153 -0.114052 0.113876 0.09634 -0.147624 -0.205412 -0.54701 -0.337142 0.064805 -0.152902 0.351455 -0.104557 -0.263163 0.063838 0.133527 0.106409 0.019667 -0.074794 -0.082145 0.2452 0.27358 -0.049961 -0.173181 -0.030085 -0.177476 0.142119 0.210859 -0.080779 0.407476 -0.071724 0.155951 0.22532 0.313703 -0.649597 -0.120172 0.119182 -0.2083 -0.616977 0.125472 -0.181031 -0.016922 -0.114665 -0.084009 0.232979 0.230034 0.226526 -0.008049 0.251019 0.16591 -0.40149 -0.135346 0.178028 -0.096334 0.133927 0.251934 -0.060326 0.195381 0.34151 0.262801 -0.074651 -0.155343 0.14594 0.601144 0.331852 -0.054491 -0.022138 0.840559
stupid 0.179257 0.155841 -0.091625 -0.21255 0.132257 -0.277474 -0.034868 0.540181 0.135274 -0.053604 -0.010404 0.327816 -0.64278 0.369118 -0.00502 -0.102706 -0.317843 0.459245 -0.298451 -0.047525 -0.646803 0.527683 0.035045 0.64437 0.392871 0.055793 -0.101752 0.329985 0.317483 -0.054431 -0.242185 -0.120383 -0.32919 -0.097054 0.144184 0.453004 0.018375 -0.289028 0.467049 -0.071258 -0.137985 0.251578 -0.094792 0.165611 0.029025 -0.416344 0.175022 0.686211 0.467947 -0.537764 0.142343 -0.066727 -0.04153 0.452095 0.147227 0.215207 -0.026266 -0.077301 0.21758 0.145523 0.421166 -0.32574 -0.19065 -0.187486 0.169818 0.072112 -0.128294 0.106534 -0.198137 -0.019311 0.264152 -0.09807 -0.201549 0.029883 0.326468 0.151308 -0.292172 0.011126 0.06171 -0.221508 0.263669 -0.19627 -0.243674 -0.054819 -0.422935 0.305849 -0.324374 -0.347311 0.453014 -0.003414 -0.633652 0.176855 0.286838 0.593762 0.136966 1.24E-4 0.290449 0.183331 0.260759 -0.760369 0.207712 0.284937 -0.268393 -0.091982 -0.088826 -0.314046 0.142699 0.058727 0.199907 0.804335 0.268515 -0.264765 -0.079882 -0.060971 0.207645 0.064221 0.023632 -0.077376 -0.236214 -0.142572 0.008644 0.01559 0.088926 -0.527655 0.163258 -0.198293 0.275537 -0.041184 0.402634 0.449094 -0.489329 0.418903 0.076837 0.002848 -0.23961 -0.021171 0.264008 0.102123 -0.07502 -0.381946 -0.282352 0.124403 0.082297 0.199172 -0.181699 0.173315 0.068443 -0.186052 -0.08056 -0.157633 0.072174 0.236981 -0.128154 -0.240629 0.501024 0.039877 -0.071801 0.057311 0.054352 -0.219527 0.176123 0.30175 0.172812 -0.14327 -0.142194 0.753988 -0.088655 -0.022712 -0.291056 0.200593 0.196989 0.489239 -0.186673 0.12044 0.085742 0.017557 0.112858 -0.773046 0.034507 -0.058054 0.061406 0.394314 0.056139 0.061494 -0.06103 -0.26286 0.190188 -0.33897 0.164508 -0.49778 -0.061368 -0.121534 -0.191925 0.457937 -0.17126 -0.077239 -0.130416 -0.126786 -0.032014 0.488543
egg 0.731762 -0.040942 0.318947 0.078243 -0.117895 -0.488935 0.057611 -9.36E-4 0.134605 0.157233 -0.001824 0.587171 -0.535762 0.389821 -0.217023 0.116877 -0.219354 0.22684 0.044039 -0.031461 -0.213361 0.4108 -0.124978 -0.098337 -0.108135 -0.039424 0.105337 -0.188127 0.031904 -0.321195 0.189182 -0.377975 -0.283448 0.156613 -0.155406 0.043582 0.167198 -0.132076 0.337864 0.300451 -0.344333 0.127105 -0.274408 0.112546 0.772201 0.291116 0.35307 0.014087 0.725725 0.100122 0.527486 -0.262446 0.758046 0.423679 -0.18074 -0.369533 -0.253241 0.235231 -0.179671 -0.144315 0.314774 -0.232289 0.19171 -0.301109 -0.240313 -0.224971 0.103073 -0.269327 0.061139 -0.223768 0.481915 -0.039178 -0.302824 -0.233608 0.018917 -0.034811 -0.037922 -0.621489 -0.470391 0.474968 0.094773 0.245615 0.03431 -0.513189 0.116989 0.328541 -0.081093 -0.006456 -0.190545 -0.16549 -0.289496 0.199785 0.003181 0.753231 0.35118 0.296489 0.354564 0.522501 0.137149 -0.560878 -0.039756 -0.065757 0.265584 0.30607 -0.085128 0.65622 -0.024889 0.680521 -0.419996 -0.171423 -0.890781 -0.13871 -0.228046 0.112396 -0.204905 -0.141219 0.111404 0.491433 0.367909 -0.1325 -0.380622 0.159163 0.263402 0.114406 0.069402 -0.267927 0.526702 -0.113766 -0.34543 0.631997 0.370938 0.572337 -0.090672 0.165082 -0.199995 0.332421 0.577825 -0.388136 -0.019256 -0.228931 -0.003559 -0.194525 -0.327254 0.365256 0.285668 -0.224158 -0.509804 0.149976 0.019108 -0.230438 0.234055 0.500949 0.009204 -0.342768 -0.138 0.756701 -0.3358 0.079984 -0.21381 0.52618 0.165252 -0.168574 0.261765 0.127555 -0.124163 0.05201 0.380652 0.221073 -0.533575 0.252795 -0.41581 0.202584 0.234658 0.357734 -0.111502 -0.022306 0.381938 -0.136376 -0.150198 -0.008657 -0.154954 -0.0219 -0.599825 0.559912 -0.019688 0.265269 0.303158 0.42473 -0.104126 0.423678 0.468995 0.381686 0.235806 0.191635 -0.118055 -0.107364 -0.065749 0.146814 0.162948 -0.137452
year 0.086863 -0.065555 0.010948 -0.062467 -0.292348 -0.047809 -0.202787 0.052033 0.063055 -0.178614 0.058215 -0.123045 -0.122518 0.012896 0.053904 0.268001 0.437888 0.322573 -0.120136 0.239133 -0.214482 0.116176 -0.194893 -0.055856 -0.030844 -0.014218 0.093116 -0.232431 0.272253 -0.077526 0.082848 -0.004696 -0.142797 0.264784 0.109641 0.069151 0.033043 -0.106461 0.195173 0.050159 -0.30141 -0.135211 0.150801 0.05991 0.418469 0.101065 0.2503 0.226043 0.20535 0.003973 -0.178729 0.002248 -0.066502 0.136634 -0.347056 0.052488 -0.136157 0.169371 0.308857 -0.010455 0.155211 0.048751 -0.136821 -0.099314 -0.004342 -0.285366 0.308485 -0.173412 0.151929 0.043787 -0.274475 -0.018093 0.099479 0.120646 -0.0964 -0.395469 -0.251207 -0.332478 -0.233963 0.05484 -0.292504 -0.116905 -0.155459 0.053496 -0.078955 -0.023719 0.031524 0.029071 -0.026315 0.261329 -0.04974 0.23671 0.148888 -0.041412 0.085623 -0.151677 0.174662 -0.129801 0.288188 -0.094321 0.066074 0.240624 0.18403 0.173766 0.001565 0.072225 -0.066554 -0.337584 0.213351 0.129557 0.083955 -0.160912 0.045303 0.062153 0.114055 0.171943 0.235283 -0.126138 0.250701 0.131756 -0.253662 0.209307 0.215056 0.097532 -0.044224 0.182106 -0.19946 -0.361173 -0.153012 0.376108 -0.127701 0.30885 -0.053546 -0.019969 -0.074465 -0.180722 0.083664 0.234977 -0.100705 -0.123382 0.003106 -0.044442 -0.043189 -0.010378 -0.384661 0.051615 0.036458 0.025388 0.236635 -0.178481 0.009493 -0.064617 -0.175115 -0.205306 0.123409 0.111489 0.207647 0.0643 -0.138356 0.001225 0.125032 0.07749 0.012796 -0.00141 0.156603 0.403971 -0.153395 0.076076 0.426721 0.044903 -0.029311 0.094938 0.056951 0.014809 0.489013 -0.055395 0.280172 0.126104 0.054965 -0.007414 0.222422 -0.026091 0.198344 -0.008299 -0.306974 0.215763 -0.143334 -0.086805 0.13115 0.287625 0.010817 0.068818 -0.088222 0.590115 0.294095 0.354682 -0.010524 0.421264 0.244776 0.174233
psychiatry 0.219434 -0.224638 -0.548878 -0.236877 0.135084 -0.271779 0.116809 0.335863 -0.190234 0.382547 0.107328 1.148809 -0.449001 0.098586 0.193324 0.138548 0.11195 0.462069 -0.251547 0.340062 -0.543811 0.117238 0.454207 0.001776 0.16727 -0.216401 -0.673152 -0.102194 0.620413 -0.306877 -0.009342 -0.161407 -0.94857 0.031491 0.186323 -0.049607 -0.314712 -0.242757 0.208475 -0.336337 -0.256444 0.153599 -0.356047 0.681365 -0.16278 0.111214 -0.114213 -0.11015 0.431836 -0.575083 -0.229986 -0.147741 -0.071511 -0.138339 0.349347 0.034512 0.17261 0.311616 -0.080359 -0.481992 0.318956 -0.683931 -0.172384 -0.451052 0.290734 -0.092177 0.172635 -0.007929 -0.368779 0.214851 -0.194671 0.496827 0.184752 -0.283083 0.089926 0.12055 -0.039154 0.160359 -0.143601 0.052389 -0.01729 -0.141892 0.224419 -0.55343 0.140584 0.180197 -0.22699 0.124718 0.088513 0.2942 -0.648737 -0.241815 0.257686 -0.181383 -0.001766 -0.155836 0.426402 0.065767 -0.048801 -0.341537 0.382257 0.518006 -0.209907 0.037864 0.047994 0.220774 -0.339504 0.144131 0.033489 0.599433 -0.613487 -0.260936 0.029878 0.049445 -0.045507 0.520065 0.208989 -0.378534 -0.166126 0.361553 -0.375067 0.050561 0.145891 -0.155588 0.097779 0.040628 0.796748 0.246936 0.051026 -0.425039 -0.414973 0.454063 0.814031 0.123667 -0.038871 0.304331 -0.6071 0.479615 0.145184 0.120975 -0.349816 0.06549 0.122875 -0.06352 0.391763 -0.135764 0.553415 -0.348867 0.38858 -0.271888 -0.013097 0.146188 0.035309 -0.461013 0.192605 0.395014 -0.366949 -0.067673 -0.286507 -0.10221 0.237833 0.063616 0.032939 -0.227076 0.002499 0.042027 0.212547 0.326605 -0.200363 1.097066 -0.05936 -0.573171 -0.01472 -0.140814 0.473758 -0.006239 0.082382 0.600545 -0.033985 -0.466701 -0.713762 -0.164353 -0.416694 0.311394 0.295334 -0.153561 0.576019 -0.030693 0.377015 0.034259 -0.121254 0.350995 0.067749 -0.177848 0.147832 0.45158 0.232828 0.411807 -0.041854 0.294086
asylum 0.538973 0.032528 -0.316268 0.045735 -0.059037 -0.220535 -0.425861 0.3825 0.157048 -0.035809 -0.045042 -0.239967 -0.104595 0.260166 -0.050808 -0.35624 -0.376402 0.326531 -0.171156 0.107428 -0.260568 0.452872 0.396046 0.043614 -0.632915 0.302934 0.093032 -1.09626 -0.065877 0.075914 -0.146305 -0.050593 -0.182983 -0.111082 -0.262117 0.440881 -0.483686 -0.09642 -0.347509 0.181065 0.119008 -0.278927 -0.461378 -0.195264 0.011643 -0.205406 0.173864 -0.211436 0.16685 -0.379516 -0.250444 0.521302 -0.004809 -0.256183 -0.005319 0.414833 -0.160457 -0.278433 0.493184 -0.333496 -0.167446 0.275566 -0.607959 0.111393 0.080574 -0.300803 0.12808 0.036949 -0.099142 0.549128 -0.355749 -0.374654 -0.692315 0.341944 0.429506 0.081182 -0.273057 -0.205084 -0.278209 0.514446 -0.338979 -0.100766 0.182135 0.162888 -0.044014 0.176763 -0.564135 -0.293849 0.673362 0.055527 -0.449012 -0.06929 0.155421 -0.103803 -0.113082 -0.122416 -0.0388 0.115395 -0.100949 -0.030485 0.538645 0.390018 0.193441 -0.231557 -0.00981 0.760894 0.070163 -0.00114 0.58147 0.9232 -0.234088 0.011644 -0.155243 0.582909 0.071261 0.121777 0.991991 -0.246923 -0.241754 0.494524 0.024622 -0.458172 0.324155 -0.154143 0.436477 -0.247124 0.198493 0.150678 0.061751 0.335381 -0.112868 0.374119 0.60066 -0.199155 0.317918 0.314149 0.396997 0.207835 -0.030169 -0.022668 -0.373029 -0.084433 0.061307 -0.137616 0.133386 -0.254742 -0.038308 0.050951 0.074586 -0.213919 0.195471 0.267723 -0.677741 -0.044472 0.314975 -0.214929 -0.549586 0.048767 -0.157859 -0.185673 -0.047229 0.335313 -0.23439 0.072027 0.480781 0.463512 -0.405422 0.176806 0.638246 -0.323042 -0.972323 0.021997 0.319238 -0.063553 -0.257353 -0.557447 0.04826 0.285361 0.168308 0.542079 0.759439 0.509923 -0.536453 0.029064 -4.56E-4 0.370709 0.363245 -0.034976 0.100775 0.051643 0.048757 -0.008629 0.072181 -0.057678 0.302211 0.353344 -0.40506 -0.072324 0.140826 -0.177475
manslaughter 0.557832 -0.083187 0.192171 -0.257776 0.381644 -0.502713 0.01187 0.18018 -0.016824 0.02847 -0.196711 -0.126759 -0.404729 -0.356968 0.322573 0.192275 0.199321 0.013487 -0.011062 -0.339808 -0.38144 0.224522 0.728221 -0.907163 0.550025 -0.151826 -0.182823 -0.794792 -0.165313 -0.790095 0.241984 -0.312812 -0.162588 -0.258059 0.274855 0.202245 0.245537 0.326248 -0.462683 -0.377232 0.110337 0.23961 0.117491 0.153954 0.09368 0.318743 0.058879 0.2978 -0.046658 0.260832 -0.122243 0.028986 0.481739 -0.083411 0.143106 -0.298553 0.347457 0.272025 0.26361 -0.262493 -0.300332 -0.485709 -0.126539 -0.442582 -0.00252 0.177795 0.379314 0.001857 0.710925 -0.25372 -0.351626 -0.358834 -0.760998 0.318101 0.396691 -0.008012 0.132079 0.050949 0.182906 0.390847 -0.649175 -0.144054 0.036819 0.047477 -0.597762 0.316347 -0.836335 0.049293 -0.218483 0.4808 -0.816517 0.114067 -0.334738 -0.126179 0.263147 0.254364 0.688415 0.696637 0.056966 -0.574112 0.34093 0.279892 -0.653581 0.256662 -0.077539 -0.624961 -0.651063 -0.690692 0.675602 0.631177 -0.469445 -0.252161 0.189438 0.291076 0.447729 0.301958 0.107676 -0.175701 -0.286742 0.486184 -0.25504 0.211222 0.411939 -0.004146 -0.226753 0.093774 0.279518 0.439796 0.325213 0.130434 -0.417557 0.311838 0.574852 0.231812 -0.034292 -0.049081 -0.165983 0.113258 0.068219 -0.167898 -0.211977 0.5688 -0.65487 0.074486 -0.128941 0.251382 -0.474524 0.421106 0.302449 0.59125 -0.062445 -0.193475 -0.649906 -0.166965 0.266792 0.068307 -0.426186 0.150701 -0.711566 0.367903 0.209118 0.305721 -0.249582 -0.10496 -0.348332 -0.227426 -0.157855 -0.362005 0.108016 0.390414 0.085085 -0.008152 0.60816 0.224183 -0.228285 0.450004 -0.228722 0.592027 0.361378 0.216263 0.511553 -0.353176 -0.334165 -0.449909 -0.42412 0.025287 0.156807 0.159113 0.755394 -0.089676 -0.171439 0.280906 -0.191179 -0.742089 0.368306 0.066093 0.352094 0.790622 0.119014 0.700486
music -0.189002 -0.350356 -0.177189 0.065754 -0.271479 -0.552408 0.075774 0.183566 0.243581 0.132308 0.447187 0.826437 -0.443731 0.061796 0.357985 0.333424 0.048115 0.615823 -0.448224 0.184165 -0.133984 0.002365 -0.11914 0.079922 -0.304429 0.044537 -0.232507 -0.564215 0.544784 -0.119476 -0.125758 -0.42541 -0.057346 0.072092 0.078333 0.351178 0.614101 -0.45967 0.130129 0.077097 -0.208342 0.152233 0.165905 0.194404 -0.029775 0.032862 0.508277 0.091699 0.220766 -0.111052 -0.147155 -0.125129 0.404489 0.290837 -0.172473 -0.032465 -0.359613 0.428798 0.278563 -0.095401 -0.052592 0.00924 -0.266423 -0.152537 -0.330428 -0.060354 0.421468 -0.019601 0.186177 0.086018 -0.057932 0.104765 -0.344941 -0.073107 -0.257399 0.346437 0.149649 0.020471 0.077598 0.208863 -0.024253 0.096019 0.210611 -0.067863 -0.18311 0.147449 0.161985 0.183797 0.166473 -0.303291 0.22326 0.23365 -0.081714 0.070602 -0.030433 0.326604 0.35069 0.072064 -0.225415 -0.006883 -0.037871 0.110458 -0.260566 -0.031467 0.107311 0.067506 0.066447 -0.272226 -0.068039 0.218288 -0.130329 0.30914 -0.176175 -0.088095 -0.158094 0.370512 0.080439 -0.312653 -0.081782 0.048226 0.506395 0.076185 -0.408148 -0.044432 -0.063262 -0.043923 0.051155 0.155034 0.150609 0.157805 -0.195766 0.031214 0.474796 -0.157852 -0.241569 -0.674161 0.238009 -0.039432 0.005397 -0.253335 -0.197304 0.474781 -0.030237 0.327101 -0.01779 0.112243 0.262823 0.109602 -0.011824 -0.201829 -0.146811 0.078202 0.203143 -0.245951 0.089508 0.122526 -0.06577 -0.001456 0.075042 0.244648 0.021957 -0.007801 -0.186082 0.030356 0.016982 -0.045453 0.17465 -0.409711 0.472018 0.117981 -0.142325 -0.019211 -0.225805 -0.246312 0.13953 -0.223086 0.404787 -0.066645 0.29072 0.075016 -0.051749 -0.504158 -0.169319 0.247782 -0.371734 -0.353052 -0.058894 0.044082 -0.311765 -2.61E-4 -0.301523 -0.007142 0.419174 -0.162224 0.092948 0.250205 0.194086 0.130998 0.078756 0.189114
record 0.018695 -0.080529 0.017016 -0.246507 -0.429308 -0.492738 3.52E-4 0.243105 0.003943 0.129677 -0.224511 -0.083829 0.166787 -0.001989 0.114943 0.248647 0.017869 0.15972 -0.239184 -0.193581 -0.159025 -0.133852 -0.443865 0.156124 -0.128285 0.19793 -0.19558 -0.085542 0.311489 -0.203725 0.177308 0.020031 0.069165 0.335334 0.170316 -0.041346 0.171287 -0.200531 0.009331 0.157099 -0.321045 0.17701 0.155763 0.128341 0.183913 0.079266 0.365726 0.120037 0.185762 -0.330097 -0.355099 -0.065052 0.128823 0.247179 -0.564609 0.179297 -0.039054 -0.10541 0.252434 -0.237673 0.407302 0.212506 -0.360759 -0.246809 -0.158518 -0.491183 0.10459 -0.136812 0.182455 -0.146658 -0.256156 0.041326 -0.130569 0.058635 0.09661 -0.482635 0.159336 -0.510204 0.232807 0.163759 -0.017057 -0.314611 0.433465 0.169457 -0.410248 0.263774 0.180618 0.116455 0.449353 0.354549 -0.056575 0.159006 0.176636 0.081942 0.206387 -0.229529 0.147497 0.056544 -0.098939 0.059282 -0.030956 0.20075 0.271671 0.082719 0.132072 -0.310801 -0.006601 -0.442627 0.113071 0.081163 -0.108933 -0.482707 0.472069 -0.368722 -0.207775 0.082765 0.158077 -0.148435 0.045263 0.113335 -0.281737 -0.187772 0.070671 0.08348 -0.261961 0.154731 0.443754 -0.258287 0.356307 0.212074 0.333117 0.356816 0.2991 -0.093722 0.191644 0.112749 0.390163 -0.387231 0.080432 0.182237 0.093774 -0.089544 0.075697 0.456481 -0.447714 -0.060276 0.082193 -0.006527 0.289123 -0.152387 0.013417 0.094803 0.196541 0.00748 0.283857 -0.032948 0.294449 -0.066084 -0.339706 0.203985 0.080918 0.210382 0.01682 0.104488 0.152288 -0.172192 0.067742 0.00453 0.252258 0.474335 -0.366297 -0.290388 0.147367 -0.118635 -0.249367 -0.081655 -0.002035 -0.003068 -0.031124 0.002916 0.37744 0.081474 -0.1224 0.248295 -0.15988 0.302459 -0.463743 -0.00772 -0.252635 0.086646 -0.101842 -0.213395 0.186979 0.072867 -0.206977 0.304843 -0.160173 0.3023 0.443975 0.46174
energy 0.005946 -0.145696 0.294253 0.152888 0.013119 -0.082611 0.038419 0.142462 0.014917 -0.034181 -0.464602 0.414242 -0.451414 0.082263 -0.304032 0.144371 0.235325 0.277255 0.002876 -0.174405 -0.359524 0.305891 -0.011858 -0.250733 0.053023 -0.037447 -0.277467 -0.424712 0.480739 -0.159226 -0.091287 -0.019077 -0.051551 0.248368 0.10981 -0.088357 0.111893 0.108895 0.12988 -0.160111 -0.030166 0.240562 -0.097279 0.323484 0.359794 0.183282 -0.114072 0.10146 0.128033 -0.049502 -0.160644 -0.155496 -0.076153 0.128513 -0.160502 0.027789 -0.278697 0.619923 0.43257 -0.621962 0.413984 0.124179 -0.187146 -0.022201 0.381357 0.053425 -0.200593 -0.120616 -0.145038 0.159369 -0.094223 0.321759 -0.157178 -0.59298 0.10387 -0.037872 -0.5312 0.175415 -0.453788 0.163186 -0.09732 0.007369 0.16019 0.121692 -0.410398 0.175223 -0.10044 0.419298 0.097262 0.103887 0.076135 0.308375 0.435855 0.025271 -0.061905 0.114807 0.549904 -0.103408 -0.221278 0.166187 0.321017 0.042335 0.192515 -0.670458 0.298492 -0.050909 0.271797 0.182575 0.06577 0.143568 0.118796 0.200507 -0.111736 -0.154658 0.284008 -0.103142 0.384093 -0.007606 -0.092545 0.043306 0.268357 -0.085517 0.022646 -0.372818 -0.132346 0.115821 0.13093 -0.086934 0.185329 -0.032526 0.129926 -0.390979 0.394272 0.029903 -0.061148 -0.137868 0.258778 0.073203 -0.02276 -0.393186 -0.436229 -0.446993 -0.367423 0.357794 -0.430145 0.173337 0.139194 -0.467665 -0.081578 -0.158449 0.084666 0.089802 -0.431009 0.361417 0.026193 -0.263889 0.326896 -0.636429 0.055702 -0.06542 0.286092 0.193929 -0.067114 0.33809 0.245741 0.097946 0.375261 0.123679 0.120614 0.213699 -0.111015 -0.304983 0.307373 0.107028 0.181162 0.030477 0.422655 -0.206319 0.012883 -0.257878 0.514698 -0.123703 -0.136538 -0.07974 0.082759 -0.059582 0.103531 0.027098 -0.106885 0.224675 -0.019387 0.019071 0.240255 0.205368 0.324236 0.123236 -0.450845 0.269617 -0.074621 0.364249
announcement 0.177549 0.082274 -0.058971 0.133677 -0.322973 -0.151672 -0.089863 0.3342 -0.060753 -0.010183 -0.514388 0.612015 0.043378 -0.112538 -0.145743 -0.231583 0.03321 0.049519 -0.328432 0.12112 -0.424185 0.061338 -0.272254 0.204675 -0.063342 -0.069285 0.046687 -0.229284 -0.1313 -0.167045 -0.107469 0.129421 -0.101963 0.20995 0.17745 0.118549 -0.220906 -0.173511 0.059226 -0.01204 0.082799 0.034954 0.350051 -0.032933 0.267369 0.494655 0.62175 -0.040922 0.255563 -0.224607 0.11533 0.004148 -0.0497 0.282156 -0.38453 0.084402 0.181697 0.174385 -0.04743 -0.238773 0.145678 0.273994 -0.202292 -0.047148 -0.194578 0.167344 -0.054745 -0.153043 0.41444 0.162344 0.062996 -0.006761 0.072381 -0.042573 -0.100009 -0.454352 -0.248124 0.077064 -0.224831 0.158999 0.017819 -0.126341 0.213061 -0.160522 -0.047176 0.060197 -0.039947 -0.033879 -0.156035 0.09868 0.236019 0.377341 0.290432 0.395455 0.261258 0.105084 0.761582 0.157468 0.101242 -0.469737 0.2772 0.505626 -0.322845 -0.020352 0.376567 0.112721 0.073368 -0.47574 0.511233 -0.240199 -0.006132 -0.072298 -0.286826 0.318011 -0.183092 0.347287 0.635337 -0.267162 0.427224 0.152768 -0.015862 0.413295 0.418251 0.145741 -0.049005 0.401513 -0.102965 -0.024565 -0.119115 0.039202 0.100118 -0.394628 -0.152324 0.237681 -0.414751 0.08669 -0.093596 0.238751 0.30062 -0.232825 0.194376 -0.311831 -0.065176 0.12982 -0.105538 0.162582 0.073465 0.21284 0.031875 -0.221647 -0.131198 -0.19167 0.316696 0.18672 -0.030879 -0.160216 -0.03696 0.044579 0.192872 -0.197569 -0.153363 0.037465 -0.016436 -0.053156 -0.255574 0.290643 -0.320446 0.15428 0.208313 0.157653 0.076786 -0.123297 -0.013396 -0.356805 0.066809 0.120655 -0.050205 -0.07949 0.095421 -0.181527 0.245223 -0.017314 -0.27554 0.034386 -0.439139 0.144342 0.245309 0.097713 0.379422 0.233115 0.27847 -0.001443 0.005911 0.033684 -0.067449 0.177657 0.13199 -0.011519 0.310365 0.597409
mile 0.154131 0.589465 0.051831 -0.232014 0.082324 0.180905 -0.427002 0.168769 -0.057123 0.066974 0.034232 -0.0092 -0.36528 0.095992 0.399005 0.225693 0.398563 -0.032309 -0.010888 -0.11375 -0.30171 0.061739 -0.41383 -0.09773 -0.230059 -0.434481 0.432407 -0.313928 -0.046954 -0.350748 0.30066 -0.243089 -0.614821 -0.043093 0.529727 0.334397 0.236688 -0.02049 0.262502 -0.001614 0.264333 0.533121 0.026426 -0.045646 0.208234 -0.20413 0.175318 0.110829 0.807619 0.080838 0.253635 -0.027628 0.442999 0.191141 -0.247099 -0.316794 -0.293027 -0.17403 0.111395 0.045354 0.321858 0.313606 -0.051889 0.025021 -0.172683 -0.073114 0.309663 -0.505417 0.024006 -0.023056 0.286696 0.574617 -0.84868 0.174745 0.087956 -0.463766 -0.921552 -0.394533 -0.50373 0.133475 -0.32699 0.151863 0.387154 0.451727 0.087599 -0.28673 -0.438795 0.234581 0.118861 0.483107 -0.177475 0.133705 -0.340447 -0.173214 -0.4363 0.044933 0.539631 -0.184555 0.142228 -0.072213 -0.466012 0.027268 0.318504 -0.045648 -0.229288 -0.245529 0.073221 -0.253066 0.389627 0.020576 -0.117762 -0.015365 -0.280736 -0.193185 0.05025 -0.134533 -0.003757 0.009513 0.033295 0.662331 -0.308495 -0.006476 0.015476 0.024251 -0.178309 0.41107 0.378106 -0.302841 0.184198 0.181125 0.45947 0.151946 -0.10553 -0.054994 -0.152972 0.086172 -0.332618 -0.09249 0.059348 -0.468498 0.035877 0.171893 0.320503 -0.117778 -0.048721 0.29753 0.334508 0.042884 -0.248354 0.031055 -0.119465 -0.037282 0.097838 0.06246 0.443857 0.393962 -0.229756 0.050433 0.367463 0.103025 0.479459 0.07683 0.085375 0.471455 0.125795 0.436725 -0.471237 -0.168259 -0.234818 0.076076 0.077497 -0.573248 -0.239913 0.294573 -0.267862 0.115654 0.368483 0.250733 0.542187 -0.127149 0.536294 -0.099761 0.03005 -0.150473 0.170047 0.285053 0.1084 0.19602 -0.150601 -0.071036 0.106685 0.32322 0.212991 -0.098896 0.165199 0.112639 0.200441 0.296644 0.226291 0.177162
airport 0.343465 -0.289724 -0.107435 0.414708 0.051687 -0.258782 -0.182709 0.436085 -0.045841 0.269031 0.113042 0.299715 -0.183254 -0.06935 -0.235917 -0.106358 -0.118116 0.177113 0.071575 0.177583 0.257731 -0.034654 -0.052816 0.227163 -0.080502 0.282685 -0.395697 -0.43757 -0.039229 -0.437181 0.178163 -0.082856 -0.198608 -0.098702 0.069722 0.328774 0.080896 -0.051016 -0.089483 0.067444 0.118341 0.553698 -0.485103 -0.120682 -0.00378 -0.092319 -0.034779 -0.039347 -0.012092 -0.154488 -0.194419 -0.322768 -0.129796 -0.27141 0.007509 -0.033632 0.061796 -0.207922 0.186843 -0.09705 0.082295 0.083482 -0.580277 -0.017408 0.424602 -0.086675 0.333474 -0.089614 0.245701 0.332214 0.134181 0.179822 -0.235387 0.054332 -0.035423 -0.44628 -0.899184 -0.494517 -0.040732 0.651974 -0.273929 -0.039363 -0.262666 -0.166109 0.099181 -0.284978 -0.407241 0.218417 -0.129053 0.070759 -0.229809 -0.074075 0.110269 0.120606 0.31525 -0.060239 0.220821 -0.33177 0.382505 -0.229512 -0.425715 0.081578 -0.703181 0.098219 -0.339494 -0.092676 -0.133826 -0.144478 0.015605 0.319395 -0.12542 0.192159 -0.221601 0.339082 0.279675 0.038731 -0.021632 -0.626188 -0.278899 0.354874 0.263746 -0.179678 0.484679 0.246604 0.177118 -0.077821 0.583841 -0.022801 -0.28124 0.152439 -0.15932 -0.240271 0.24881 -0.261933 0.013688 0.019862 0.008376 -0.282188 0.025313 -0.473964 0.043893 -0.089023 -0.266141 0.242806 0.049296 -0.001204 0.17603 -0.115833 -0.18482 0.074805 -0.325174 0.018461 0.177749 0.406444 -0.120135 0.021943 0.010207 0.043424 -0.083437 0.393331 -0.042492 0.022296 -0.170984 0.06595 -0.140052 0.61824 -0.096063 -0.119254 0.232315 -0.197873 -0.19556 -0.207207 0.304989 -0.024281 0.243048 -0.527564 0.257326 0.475186 0.327971 -0.429348 0.414267 0.451407 -0.227012 -0.203941 -0.293671 0.079122 0.091254 0.004831 -0.385157 0.156631 0.296069 0.442198 -0.10503 -0.190858 -0.120771 0.369237 0.370628 0.086003 0.340932 0.459905
population -0.25017 -0.148061 -0.076513 0.020321 0.077451 -0.191997 -0.069699 0.180976 0.108798 0.108048 0.421253 0.315786 0.109254 0.091648 -0.283734 0.48592 0.163851 0.089794 -0.184562 0.053053 0.386636 0.333145 -0.050079 -0.347491 0.010937 -0.125486 0.197919 -0.314449 -0.117138 -0.212643 -0.198909 -0.456388 -0.481645 0.114221 0.042297 0.160114 0.485646 -0.114186 0.495646 0.117742 -0.083331 0.187662 -0.092265 0.024363 0.168394 -0.070069 0.095273 0.042568 0.184854 -0.115255 -0.033133 -0.581988 0.286091 0.373725 -0.092171 -0.086752 -0.056118 -0.24183 0.327551 -0.481581 0.528982 -0.245373 -0.101432 3.62E-4 0.202492 -0.308957 0.161224 -0.042639 0.235103 0.367308 -0.274332 0.133262 -0.348845 0.424266 0.485782 -0.498935 -0.371141 -0.174682 -0.528215 -0.21358 0.260755 -0.188195 -0.120695 -0.020343 -0.086453 0.050779 -0.086168 -0.150428 -0.099589 -0.085054 0.00758 -0.178692 0.409539 0.221874 -0.396815 -0.245968 0.363911 0.012597 -0.004424 0.035495 -0.10355 -0.131972 -0.107875 -0.299026 -1.48E-4 -0.002773 -0.252682 0.008574 0.305877 0.043777 0.154508 0.348488 -0.086862 0.302517 -0.219225 0.00983 0.544529 0.423654 -0.124843 0.093566 -0.442692 -0.18324 0.391347 0.024335 -0.071894 -0.258653 0.1064 -0.458442 -0.308051 0.508052 -0.161557 0.393651 0.069261 0.416757 -0.123932 0.263539 0.279049 0.372759 0.134535 -0.08496 0.008177 0.193151 0.115887 0.236918 -0.190914 -0.222407 0.170007 -0.341628 0.002523 -0.347711 0.21737 -0.205427 0.020515 -0.11164 -0.027847 0.113476 -0.098191 -0.095323 -0.250583 0.246268 0.357654 -0.097936 -0.25003 -0.065841 0.472426 0.478079 0.057918 0.148345 0.258815 0.30801 -0.59806 -0.412333 -0.190634 0.026359 0.103853 0.100454 0.714967 -0.293639 0.306081 -0.100351 0.436046 0.328359 -0.099388 -0.015369 -0.05261 0.073603 0.407376 -0.120903 0.054063 0.174054 0.199044 0.219878 -0.088245 -0.050268 0.29733 -0.036557 0.003986 0.223167 -0.114697 -0.074248
planning 0.166521 -0.082298 0.343571 0.098959 -0.251374 -0.333472 -0.208763 0.365656 -0.187419 -0.173648 -0.10345 0.17892 0.072291 0.091981 0.100189 -0.080156 0.06338 0.233925 -0.290295 0.040327 -0.025383 0.389522 0.030332 0.064929 0.157804 0.191959 -0.396178 -0.181443 0.14588 -0.178598 0.014572 0.154535 -0.139116 0.007389 0.23456 0.255759 0.012377 -0.212929 -0.182746 0.049146 0.100549 0.029883 0.109954 -0.071337 0.234939 0.390888 0.383418 -0.043422 0.050693 -0.16504 -0.234865 -0.318892 -0.086463 0.032877 -0.140357 -0.195503 -0.354644 0.12256 0.328025 -0.078373 0.005943 0.113115 0.088301 0.00371 0.399629 0.031725 0.234464 -0.118852 0.107359 -0.140184 -0.240431 -0.041996 0.030977 0.064281 0.084509 0.074213 -0.134304 0.014534 -0.194708 -0.200492 -0.077625 0.066798 -0.348574 0.109479 0.035525 -0.05749 -0.220944 0.050116 0.069704 -0.124696 -0.265992 0.071876 0.265299 -0.160995 0.101689 -0.008678 0.017782 -0.10042 0.044185 -0.319885 0.041847 0.026948 -0.078678 0.055706 -0.142006 0.063017 0.092127 -0.602022 0.106675 0.362343 0.084482 -0.044162 0.092567 0.351979 0.180953 0.350927 0.351232 -0.187746 -0.227079 0.236766 -0.016315 0.404016 0.516427 -0.158716 -0.111391 0.13871 0.193454 0.047432 -0.217366 0.223404 0.214939 0.164225 0.164594 -0.268715 -0.165832 0.069451 0.179552 0.044546 0.206061 -0.218367 -0.230633 -0.237213 -0.038505 0.092493 -0.167024 0.294207 0.060114 -0.061342 -0.054956 -0.321403 -0.2792 0.135794 -0.017867 0.163261 0.362886 0.087652 -0.497906 -0.064866 -0.128933 -0.355878 0.001033 -0.212588 -0.143407 0.118753 -0.072152 0.109891 0.213143 0.282241 0.201438 -0.208681 0.056552 -0.10044 0.01435 0.016957 -0.052608 0.028328 0.700646 -0.007917 -0.122495 0.006972 0.443262 -0.027365 -0.113003 0.1056 -0.156242 -0.02499 0.217914 0.247818 0.214675 0.251591 0.066285 0.012466 0.278778 0.05833 0.10526 0.401908 -0.380056 -0.109003 0.419238 0.125413
canyon -0.44975 0.154827 -0.503588 -0.192831 0.504757 -0.163176 -0.176002 -0.269648 0.014944 0.025741 -0.23186 -0.232101 -0.178291 0.338726 0.42075 0.10176 0.309291 0.37734 -0.036227 0.03961 -0.054545 0.053604 0.234673 -0.0453 -0.262078 0.119663 -0.395724 -0.187906 -0.226468 -0.218723 0.166426 -0.05722 -0.669982 -0.184795 0.066931 0.018767 0.293674 0.31149 0.027473 0.308394 0.045609 0.463424 -0.166856 0.204945 0.489155 -0.018804 0.036252 -0.109139 0.051019 -0.203495 0.205506 0.071787 0.691019 0.044047 -0.430083 -0.298365 -0.625136 -0.105957 0.431212 -0.452624 0.477252 0.41054 -0.057057 -0.306813 0.193796 -0.145581 0.514715 -0.38724 0.162029 -0.026787 0.623369 0.175504 0.221474 0.194552 0.230973 0.127674 -0.483462 -0.688715 0.129839 0.676349 0.539946 -0.025795 -0.060451 0.331154 0.219331 -0.281575 -0.442808 -0.321255 -0.0289 0.382161 -0.493853 0.181183 -0.19059 -0.094617 -0.136354 0.179193 0.129203 0.126914 0.182556 0.069252 -0.032731 0.234629 -0.230607 -0.233634 -0.112026 -0.021965 0.006867 -0.321181 0.337169 0.226069 -0.155766 -0.092346 0.139875 0.033068 0.116842 -0.391377 -0.206905 0.245666 -0.263739 0.321448 0.05703 -0.259994 -0.406529 0.317719 -0.472989 -0.260673 0.31873 0.040048 0.573422 0.044918 0.359474 0.233788 0.130883 0.028505 0.029157 0.076108 0.081539 -0.081545 -0.194902 -0.468175 -0.027789 0.290404 -0.101464 0.128125 0.110473 0.400531 0.350541 0.135608 -0.134978 0.014998 0.168878 0.381385 -0.430302 -0.019588 -0.127073 0.460751 -0.387909 0.375954 -0.494088 -0.05272 0.164951 0.233224 -0.050775 0.304253 0.206652 0.109512 -0.534964 0.164573 -0.009203 -0.07719 0.111658 -0.410603 0.047931 -0.388644 -0.413597 0.148319 0.468636 0.131174 0.464588 -0.026743 0.692773 -0.189934 -0.109287 -0.078501 0.129928 -0.087542 0.088284 0.137546 -0.116091 0.022083 -0.015842 -0.068994 -0.23872 0.054158 0.396786 0.184569 0.332879 -0.085922 -0.089141 0.390825
delay 0.044388 0.233978 0.022491 0.32192 -0.058319 0.108545 0.089877 0.239406 -0.215488 -0.165558 -0.004601 0.243928 -0.005955 0.244002 0.258272 -0.25276 0.096152 0.388185 -0.553203 -0.070586 0.028989 -0.103121 0.008427 -0.035391 0.02825 -0.499849 -0.283432 -0.080886 -0.205533 0.12809 0.054373 0.00815 0.033006 0.13592 0.281031 -0.009999 -0.130716 -0.138914 -0.249089 -0.036575 0.100783 -0.099273 0.106416 -0.11363 0.178214 0.251364 0.56324 0.236804 0.414294 -0.435797 -0.109713 -0.140429 -0.078929 0.104628 -0.248242 0.283689 -0.054037 0.122804 0.280792 -0.228997 -0.133735 -0.150103 -0.277744 -0.15548 0.207105 -0.039766 -0.067804 -0.138692 0.010946 -0.032699 -0.133573 0.10763 0.065032 0.360817 0.132628 -0.070775 -0.378269 -0.08856 -0.172773 0.342091 0.252315 -0.266889 0.142877 0.254859 -0.022464 0.161191 -0.638098 -0.503499 0.05253 0.146353 -0.085377 0.357957 0.188233 0.467396 0.30651 0.464435 0.057705 0.397661 0.162308 -0.252889 0.111503 0.008717 0.042041 0.121532 0.2144 0.407585 -0.085472 -0.160462 -0.154962 0.147535 -0.097216 -0.191132 0.078 0.385839 0.006337 0.354615 0.302626 -0.573854 -0.057458 0.14515 -0.235476 0.362521 0.365985 0.061683 0.50595 -0.252354 0.374034 0.06137 0.049816 0.234459 0.010193 0.12542 0.084574 0.070665 0.055034 -0.091757 -0.202903 0.265301 0.356584 -0.02339 0.2684 -0.304229 -0.039195 0.491397 -0.013607 -0.349608 0.035106 0.280635 0.03349 -0.015444 -0.249815 -0.394891 0.091966 -0.175791 -0.179709 -0.217303 0.007645 -0.39673 -0.026275 -0.159564 -0.238396 0.043761 -0.279789 0.3688 -0.149371 0.051634 0.328181 0.220821 -0.079613 -0.053466 -0.183774 0.179758 0.348655 0.118168 0.09016 0.178443 0.334112 -0.012219 0.093216 -0.128194 0.552616 0.062897 -0.335087 -0.312897 -0.195801 0.015826 0.259472 0.061798 0.222085 0.254997 0.148335 0.011572 0.128429 0.368331 -0.168691 0.275093 -0.229898 0.231818 0.099938 0.393734
size -0.287683 0.074073 -0.108832 -0.054432 -0.116179 -0.401668 -0.321973 0.052994 -0.063435 -0.003969 -0.062983 -0.103672 -0.155149 0.371899 0.166462 0.177962 0.206497 0.445849 -0.40734 0.215944 0.104106 0.042857 0.252817 -0.167927 -0.230761 -0.100345 -0.036356 -0.049162 0.031645 -0.717617 0.032185 -0.280323 -0.284444 0.32789 -0.086564 -0.031675 -0.110166 0.253751 0.387629 0.118898 0.249342 0.235152 0.250638 0.063338 0.731503 0.03028 0.225367 0.240196 0.420617 -0.179858 -0.286133 -0.272931 0.371996 0.386802 0.340675 -0.186634 0.161659 -0.138168 0.200632 -0.300188 0.040356 -0.029194 0.037072 0.120631 0.444749 -0.128387 -0.137415 -0.22493 0.140718 0.132393 -0.132363 0.231215 -0.121453 0.27653 0.219594 -0.063195 -0.3369 -0.143247 -0.287802 -0.153796 0.391926 -0.004826 -0.381225 -0.12985 -0.190232 -0.131851 0.017617 0.252203 0.079982 0.299759 -0.247194 0.094553 0.159737 0.258385 -0.324467 -0.019671 0.076385 0.144493 -0.106036 0.061883 0.162966 -0.099647 -0.205067 -0.183436 0.053082 0.060434 0.155577 -0.028581 0.133209 -0.122499 -0.239793 0.024439 -0.233948 0.193628 0.149369 -0.052548 -0.028039 -0.062742 0.287256 0.14224 -0.061508 0.143501 0.217643 -0.004573 0.094602 -0.097606 0.006348 -0.120842 -0.05531 0.371851 0.054118 0.31466 -0.084382 0.213017 -0.444589 0.01073 -0.00153 -0.368342 0.01419 -0.426417 0.150261 -0.097891 -0.053227 0.231976 0.175391 0.339477 0.030999 -0.171231 -0.33903 0.158749 0.649581 -0.010722 -0.019672 0.218458 -0.019161 -0.088763 0.022523 0.001469 -0.008317 0.151885 0.277108 0.072972 0.067265 -0.03043 0.412356 0.055496 1.91E-4 0.312518 0.094031 0.039121 -0.235122 -0.053827 0.265731 -0.118626 0.192862 0.173908 0.601445 -0.117956 0.133119 0.118279 -0.208046 0.147335 -0.277412 0.08889 -0.09301 0.313972 0.099559 0.356573 0.017023 0.580938 0.259524 0.233966 -0.284782 0.109929 -0.234251 0.265398 0.258114 0.400465 0.217737 0.138212
peace -0.17777 -0.077208 -0.172748 0.37845 -0.272461 0.077511 0.149836 0.055265 0.272199 0.433312 0.173324 -0.022168 -0.476543 0.192883 -0.064834 0.14286 -0.175052 0.459042 -0.183908 0.203556 -0.467681 0.112823 -0.453215 0.008395 0.222371 -0.088881 0.335054 -0.732656 -0.282082 -0.200273 -0.237345 0.270852 -0.189652 -0.002001 0.005837 -0.179191 0.034084 -0.267366 0.078365 0.151534 -0.062187 -0.130876 0.326814 0.25833 0.246754 0.550219 0.081118 -0.093567 0.134666 -0.049866 -0.195176 -0.464853 0.131631 0.260343 -0.14105 -0.087267 -0.009112 -0.087372 0.24276 -0.388937 0.123325 0.195743 -0.464167 -0.157712 0.284323 0.560015 0.197197 -0.400253 0.196457 0.129881 0.322929 0.06164 -0.37174 0.275586 0.167288 0.27841 -0.644583 -0.085448 0.173736 0.364021 -0.240444 -0.064125 -0.134975 -0.47126 0.238594 0.270718 -0.353017 -0.346264 0.263427 0.390148 0.437512 0.216049 0.342169 0.247567 0.475933 -0.223192 0.417887 -0.024985 -0.157079 0.031505 0.216429 0.753599 -0.148629 0.349837 -0.560964 -0.295683 -0.16323 -0.34296 0.701273 -0.028535 0.3657 -0.136985 -0.448463 -0.207518 -0.059526 0.271067 0.738881 -0.280165 -0.239954 0.220056 0.122141 -0.146343 0.207464 -0.040847 -0.157589 -0.303914 0.022908 -0.116771 0.005932 -0.008731 -0.19176 -0.100653 0.207385 0.081818 -0.027783 -0.013298 -0.091829 -0.269802 -0.267766 -0.204027 -0.201747 -0.110358 -0.079069 0.2434 -0.311431 -0.129525 0.502181 0.290079 0.371693 -0.235805 -0.026882 0.054185 0.044072 -0.157564 0.099413 -0.199116 -0.07828 0.334953 -0.399953 -0.001925 0.095831 0.242334 -0.052359 -0.163079 0.189143 -0.477767 0.058151 0.076848 0.401493 0.325766 -0.248517 -0.129387 0.380746 0.204233 0.272769 0.027394 0.567808 0.262737 0.0041 -0.006949 0.559179 0.134903 0.193689 -0.366528 0.547497 0.14809 0.551442 0.175775 -6.49E-4 -0.126164 -0.569329 0.527155 0.571963 -0.229389 -0.240479 -0.498936 0.031058 -0.5118 -0.029262 -0.00601
science 0.205672 -0.163762 -0.396772 -0.297527 0.353176 -0.064447 -0.059974 0.036627 -0.058396 -0.04707 -0.484159 0.559499 -0.206023 0.455279 0.027029 0.240354 0.250085 0.626364 -0.133392 -0.012779 -0.299854 0.342214 0.061116 -0.155485 -0.113599 -0.158782 -0.438096 -0.433759 0.222131 -0.267021 -0.062696 -0.101532 -0.56731 0.041751 0.18057 0.292857 -0.240457 -0.396455 0.234607 0.307082 -0.042033 -0.180564 -0.191721 0.305057 0.419715 -0.011612 -0.082733 0.320366 -0.080406 -0.447565 -0.178193 0.027564 0.118495 0.007528 -0.247621 0.137255 -0.256315 0.289566 0.08751 -0.31083 0.236774 -0.213261 0.006043 -0.238481 0.354292 0.165639 0.059054 -0.079578 0.014492 0.23739 0.024493 0.426098 0.205634 -0.218448 -0.088183 -0.172121 -0.152217 -0.002188 0.060255 -0.023633 -0.210482 -0.14882 0.012196 -0.295403 0.0419 0.114755 -0.035361 -0.01546 0.129016 0.181973 -0.520734 0.033634 0.152337 0.345929 -0.255798 -0.105412 0.221535 0.142979 0.019435 0.016223 0.234982 -0.052175 0.210175 0.358934 0.041989 0.176902 -0.090308 0.076475 0.004242 0.346057 0.266935 -0.270936 -0.065776 -0.045738 0.257284 0.371852 0.166268 -0.42082 0.131934 -0.048046 -0.00945 0.055471 0.015535 -0.54736 0.015637 -0.565246 0.396791 0.096271 -0.075944 -0.365058 0.162163 0.261475 0.166411 0.151466 -9.51E-4 -0.204286 0.128469 0.407851 0.06684 -0.2071 -0.178253 0.132426 -0.106012 0.246746 0.368385 0.031102 0.647199 0.179963 0.20716 -0.14692 -0.110892 0.139357 0.02895 0.065172 0.095515 -0.105257 -0.08342 -0.01904 0.083466 -0.274194 -0.330082 0.031373 -1.5E-4 0.035741 -0.102596 -0.176425 0.159192 -0.068459 -0.031201 0.593427 -0.569725 -0.143238 -0.070545 0.038348 0.348365 -0.087334 0.559907 -0.1259 0.129157 0.037408 0.086766 -0.232767 -0.333466 0.058636 0.287458 -0.219197 0.044396 0.060096 0.175146 0.075755 -0.003674 0.099971 0.196418 0.154735 0.341672 0.097604 -0.006726 -0.045069 -0.288615 -0.055804
dawn 0.18632 0.122659 0.080024 0.587981 -0.040205 0.151358 -0.396992 -0.052701 0.044424 0.131304 0.035825 0.498221 0.06541 -0.052743 0.384583 -0.045445 0.086287 0.375936 -0.181136 0.241845 0.227878 0.105308 -0.063842 -0.113036 -0.137835 -0.018168 0.326894 -0.268818 -0.161475 -0.262807 0.070138 -0.200851 -0.349807 0.237346 -0.01849 -0.277597 -0.104245 0.024326 0.447873 0.096801 -0.30641 0.467774 0.378998 -0.457357 0.423445 -0.21866 0.003617 0.178223 0.547961 -0.015353 -0.107774 0.031515 0.350915 0.072336 0.044201 0.032342 -0.294587 0.446204 -0.045096 -0.193264 0.231967 0.300164 -0.110316 -0.398996 0.394098 0.121904 0.316341 -0.178028 0.387987 -0.057 0.186019 0.025765 0.004859 0.058898 0.204566 -0.313719 -0.721159 -0.271192 -0.588758 0.135078 -0.366634 0.016956 0.261521 -0.318898 0.118764 0.28286 0.063032 -0.375604 0.094879 0.050696 0.047515 0.348051 0.139133 -0.36832 0.220099 0.185905 0.081335 -0.222535 0.470564 -0.103768 0.074273 0.363629 -0.443138 -0.132444 0.083241 -0.294072 0.080918 0.173266 0.769122 0.38421 0.287353 0.172138 -0.411579 0.155411 0.008382 0.068807 0.054979 0.232726 -0.240923 0.358498 -0.178108 0.175176 -0.009742 0.316014 0.368303 0.126839 -0.33788 -0.191922 0.005037 0.470355 0.507105 0.071753 -0.054799 -0.335343 -0.32902 -0.242018 -0.013713 0.159181 0.227368 -0.732457 0.127853 -0.450441 0.458288 0.010078 0.063072 -0.079588 0.128992 -0.08456 -0.215523 -0.481882 0.115429 0.09025 0.103809 0.191431 0.038053 0.104416 -0.031068 0.067454 -0.378876 0.011002 0.075135 -0.002233 -0.073251 0.306319 -0.331305 0.193834 -0.151119 0.302224 -0.111619 0.087999 -0.084704 -0.226995 -0.028822 -0.037492 -0.128622 -0.429504 -0.01591 0.12377 0.204714 -0.369038 -0.110518 -0.082363 -0.450794 -0.201058 -0.227908 -0.057006 -0.146327 -0.221545 -0.410453 -0.312883 0.035905 -0.152326 0.276437 -0.534192 0.338265 -0.338782 0.161109 0.075358 0.637927 0.366006
brother 0.179423 0.142359 -0.127439 0.101605 0.0775 -0.253615 -0.175222 0.144641 -0.205211 -0.006386 0.527615 0.312391 -0.140556 0.271887 -0.400746 0.132195 0.200806 -0.074 -0.227423 -0.166442 -0.592283 -0.032351 0.326786 -0.07305 -0.128891 -0.147768 -0.126672 -0.571697 0.063116 -0.190792 -0.043552 0.071573 -0.149044 -0.183228 0.313936 0.110522 -0.15801 -0.014126 0.112353 -0.060333 -0.182038 0.060078 -0.15669 -0.169193 -0.335163 -0.201535 -0.37464 -0.101855 0.213952 0.025336 -0.110348 0.012142 0.336505 0.310002 0.090176 -0.213325 -0.195411 0.002916 0.345114 -0.549415 -0.059809 0.006824 -0.27315 -0.184596 0.121171 -0.041919 0.339149 -0.085131 0.210358 -0.23332 0.139212 0.196024 -0.661567 0.51479 0.269796 0.058703 -0.341575 -0.488258 -0.355976 -0.163128 0.175788 0.088665 -0.309365 0.215754 0.068276 0.05586 -0.13467 -0.177579 0.317826 0.177651 -0.104401 0.09612 -0.086301 0.084293 -0.185609 0.123285 0.351644 -0.006828 0.408921 -0.331462 0.486259 -0.126019 -0.325745 0.270939 0.146499 -0.100115 -0.369225 -0.340834 0.793304 0.27985 0.081604 0.241309 -0.0481 0.19533 -0.311343 0.389046 0.393818 -0.03794 -0.274232 0.250059 -0.198214 -0.08962 0.138571 -0.015871 -0.291665 -0.054739 0.045399 -0.403297 -0.08279 0.225835 -0.177282 0.116404 -0.152162 -0.076003 0.227673 -0.192436 0.12515 -0.12569 -0.024094 -0.378305 -7.68E-4 -0.029556 -0.108704 0.154021 -0.059369 -0.400116 -0.140987 0.37177 -0.109172 0.29561 0.197216 0.280678 0.263303 -0.196368 0.105897 -0.523276 0.067998 0.037127 -0.127656 -0.062859 -0.155368 0.163853 -0.010312 0.076259 -0.383601 0.15783 0.085267 0.174339 -0.046508 -0.023114 -0.075229 0.228263 0.191067 0.132493 -0.48892 -0.387428 -0.328984 0.218584 0.279224 -0.273721 -0.387847 -0.497631 0.129319 0.089324 -0.074713 -0.27548 -0.138376 -0.01138 0.32566 0.329121 0.459794 0.001831 -0.050976 0.07652 0.32259 0.046033 -0.013737 -0.035385 0.042 0.809965
wine 0.635311 0.108037 0.02812 0.044931 -0.115617 -0.263228 -0.065922 0.04403 -0.045364 0.284001 0.072622 0.220182 -0.621015 0.283344 0.278853 0.418942 -0.194439 0.003559 -0.280333 0.266024 -0.242426 0.108057 -0.094154 -0.507521 0.294745 0.006731 -0.290743 -0.593449 0.63316 -0.487894 0.022071 -0.014752 -0.147601 0.310769 0.123887 0.077737 0.320341 -0.045867 0.19871 0.372148 -0.110302 0.446984 -0.103559 0.540216 0.413721 -0.418277 0.328525 0.080902 0.373012 -0.241404 -0.529128 -0.476879 0.283841 0.167481 -0.020801 -0.206742 -0.258534 0.182426 0.26975 -0.225116 0.331911 -0.115694 -0.061849 -0.74114 -0.415463 -0.066544 -0.404868 -0.057855 -0.232592 0.385137 0.161139 -0.015198 0.158344 0.488991 -0.015144 -0.480838 -0.479808 0.102079 -0.121157 0.038897 0.125228 0.182266 -0.042698 -0.363399 -0.042065 0.385679 0.40132 0.109518 0.25708 -0.29572 0.588176 -0.095939 -0.114055 -0.095524 -0.080659 0.361531 0.10102 -0.346283 0.200721 -0.42046 0.081781 -0.088966 -0.512262 -0.029673 -0.161352 0.274941 0.135106 0.144752 -0.336535 0.126475 -0.277601 0.387633 -0.192852 0.420314 0.134174 0.111352 0.032172 0.309467 -0.216359 0.212583 0.231889 0.178551 0.315995 0.062507 0.463543 -0.474494 0.188101 -0.267315 -0.06753 0.36399 -0.015715 0.079232 0.318152 -0.222054 -0.11212 -0.683435 0.345057 -0.580631 -0.419191 0.129857 -0.386831 -0.557884 -0.192835 0.316156 0.254387 -0.013746 0.285231 0.047126 0.404685 0.356753 0.491081 -0.040124 -0.037118 -0.521033 -0.164872 0.237223 -0.218929 -0.108729 -0.042989 0.114775 -0.050715 0.210704 -0.280594 0.082732 0.422659 0.258288 0.16702 0.061913 -0.118176 -0.009463 -0.078963 -0.01636 -0.01243 0.156725 0.017068 -0.551384 0.286942 -0.02123 -0.086768 0.117254 -0.038648 -0.055293 -0.016478 -0.238288 -0.178298 0.154928 0.128214 0.192044 -0.096537 0.141714 -0.382324 -0.254358 0.287267 0.013939 -0.298001 -0.01443 0.105925 0.078623 -0.203122 0.520324
object 0.418076 -0.386055 0.027675 0.383386 0.224324 -0.68825 -0.264924 0.094704 -0.051608 -0.211245 -0.152283 0.056465 -0.150717 0.618516 0.345184 0.161418 0.1285 0.509136 -0.193166 -0.207542 -0.300996 0.062462 0.350029 0.32813 -0.027303 -0.113892 0.119611 -0.218363 -0.057791 -0.004608 0.350193 -0.127748 -0.379684 0.10478 -0.265667 -0.230942 -0.009584 -0.318819 -0.035683 -0.167 0.019025 0.214266 0.188174 -0.057681 0.481079 0.141416 -0.125052 0.168262 0.012724 -0.158266 -0.229238 -0.429522 0.093924 0.189729 -0.196122 -0.027021 0.277893 0.250768 -0.036071 -0.265636 0.22978 0.077177 -0.05883 -0.137778 -0.044283 0.28577 0.056295 -0.163639 -0.450121 0.002145 0.305806 0.43149 -0.20128 0.00581 0.230851 0.08359 -0.387305 -0.365367 -0.148065 0.109087 -0.155089 -0.083065 0.156788 -0.184028 -0.354243 0.332831 0.010712 -0.210773 -0.09762 0.189619 -0.403544 0.266234 -0.206674 0.34046 -0.157295 0.335247 0.455534 0.05156 0.147826 -0.092196 0.043984 0.327872 -0.208739 0.244597 -0.057451 0.069423 -0.054048 0.050404 0.026328 0.306633 -0.106143 -0.051853 -0.21784 -0.209027 0.073405 0.324011 -0.12187 -0.235845 -0.211543 0.268993 0.03483 0.173625 -0.033686 -0.294344 0.01313 -0.147539 0.316017 -0.394476 0.198335 -0.251964 0.381165 -0.079925 -0.025695 -0.171375 -0.329787 0.071566 0.020304 -0.007499 -0.00208 -0.274392 0.061745 0.040477 -0.060881 0.267129 -0.152363 -0.119837 0.011771 -0.227623 0.005119 0.043467 0.183298 0.309841 -0.199858 0.318904 -0.089565 0.009736 -0.090157 -0.200486 0.232631 -0.249978 -0.054181 0.337333 -0.021007 -0.005416 0.104838 0.194466 -0.366197 0.509394 0.017048 0.127087 0.136487 -0.445675 0.142984 -0.328223 0.063512 0.497569 0.561342 0.013206 -0.047983 0.17066 0.024576 -0.165941 -0.029265 0.095034 -0.354376 -0.220501 0.566912 -0.024403 0.017748 0.184178 0.115796 -0.006754 -0.378043 -0.160709 0.168786 -0.145793 0.1828 -0.353481 -0.276113 0.309783
attitude 0.245339 -0.196573 0.151206 0.157247 -0.257718 -0.317051 -0.43215 0.347389 0.311893 -0.217581 0.166899 0.288234 -0.247641 0.033311 0.458366 0.753852 -0.021501 0.355255 -0.034392 -0.176775 -0.69346 0.075 0.056988 -0.039142 -0.273252 -0.208028 -0.088213 0.049494 0.245557 -0.09137 0.260612 -0.248141 -0.129519 -0.052999 0.135585 -0.226484 -0.265743 -0.131639 0.39863 -0.548986 -0.190592 0.281343 0.021517 -0.036459 0.04358 0.022751 0.057282 0.171769 -0.103532 -0.228919 -0.560017 -0.169991 -0.047939 0.34941 0.006868 0.081297 -0.062641 0.296997 0.282377 -0.207928 -0.279565 0.20007 -0.211294 -0.100803 -0.143535 -0.306809 0.095469 -0.079498 0.101741 0.02401 -0.033649 0.308948 -0.298321 0.189438 0.007509 -0.097477 -0.206227 0.076303 -0.376374 -0.246311 -0.016107 -0.009339 0.01221 -0.242144 -0.405179 0.05366 -0.035584 0.072044 0.398746 0.255495 -0.237204 0.269121 0.170138 -0.198138 -0.050704 0.263371 0.532799 0.312947 -0.779313 -0.663647 0.139051 0.202713 -0.553238 -0.040909 -0.411116 -0.050365 -0.180696 0.186012 0.288742 0.384346 -0.163594 -0.314013 0.015131 0.105659 0.055789 -0.026729 0.369469 -0.374275 -0.241319 -0.239204 0.233097 -0.108396 0.57232 -0.032124 -0.14287 -0.318139 0.053424 0.215427 -0.127325 0.273672 -0.156638 0.532057 -0.209523 0.138799 -0.493098 0.217067 -0.159158 -0.159375 0.042196 -0.523612 -0.201229 -0.240896 -0.159862 0.067781 -0.088006 0.108936 0.418177 0.167127 -0.098562 -0.525419 -0.017376 0.049724 0.005194 0.118112 -0.128056 -0.040317 0.063775 -0.246823 0.30017 -0.195032 0.038076 0.206813 -0.186614 0.119846 0.427782 0.190431 -0.05734 0.216586 0.377504 0.208969 -0.073376 -0.099349 -0.259671 -0.132099 -0.237158 0.074932 -0.071777 -0.095874 -0.218319 -0.005644 0.241437 0.278574 -0.105288 0.28396 0.097578 -0.265071 0.131356 0.025043 0.131435 0.088744 0.104778 0.385188 0.226935 -0.32756 -0.385708 -0.198943 -0.145746 0.052143 -0.285898 -0.072082
treatment 0.32441 0.011485 0.058657 -0.051505 -0.098349 -0.252696 0.075371 0.07995 -0.178235 0.136099 0.146504 0.362565 -0.394129 0.063177 -0.223802 0.006489 -0.310258 0.454331 0.296294 0.258758 -0.306071 0.31653 0.331253 -0.10204 0.041824 0.061924 -0.408672 -0.390263 0.472862 -0.050033 -0.250101 -0.317498 -0.427576 0.375394 0.25413 0.093358 0.018477 0.025616 0.050676 -0.226453 0.038219 -0.15272 -0.435033 0.354762 0.274436 0.123136 0.323961 0.02356 0.391119 -0.008044 -0.338784 -0.067527 -0.218665 -0.189588 -0.048116 -0.073754 0.043972 0.018704 -0.094231 -0.295298 0.042733 0.273551 -0.126019 0.091688 -0.05576 0.121993 -0.166958 -0.039568 0.208978 0.163406 -0.200808 0.20512 -0.110479 0.326682 0.648168 -0.023747 -0.11468 -0.001955 -0.380206 0.352253 0.145176 0.043082 0.383705 0.280868 0.008996 0.080243 -0.449943 -0.009886 0.060905 0.538661 -0.125223 0.043741 0.169777 -0.087009 0.081084 0.389439 0.323946 0.492606 -0.155922 0.126894 -0.068036 0.135344 -0.283522 -0.122109 -0.006643 0.610828 -0.127108 0.106009 0.272984 -0.084916 -1.21E-4 0.155196 -0.015869 0.091342 0.189275 0.385527 0.1812 -0.133162 -0.001494 -0.136259 -0.257738 -0.034924 0.358913 0.12984 0.009102 -0.015726 0.544335 0.110521 0.305672 0.187269 -0.20046 0.402092 0.05546 -0.166188 -0.010417 -0.214801 -0.066855 0.342145 -0.133539 0.128926 -0.029368 0.012254 0.209517 -0.059244 0.237836 -0.037857 -0.107007 0.410108 -0.079051 -0.14834 -0.158553 -0.234151 -0.16024 0.237932 -0.269478 -0.084519 -0.241871 0.071242 -0.244297 -0.07807 0.103319 -0.181899 -0.170349 -0.268077 -0.189668 0.315833 -0.027296 0.479265 0.063316 0.160839 -0.404405 -0.527486 -0.054783 0.175127 -0.24856 0.018147 0.013044 0.28464 0.295661 -0.022089 0.300116 0.255124 0.097453 0.200421 0.017669 0.083008 0.368272 -0.089463 0.141456 0.420424 0.09635 0.134548 0.254452 0.409229 0.209349 0.449848 -0.224453 0.122537 -0.003616 -0.005816
flight 0.274104 -0.300006 -0.279961 0.309886 -0.008108 -0.319308 0.015658 0.250835 0.051721 0.067816 0.250822 0.386461 0.28611 0.02986 -0.383942 0.047727 -0.026433 0.480914 0.208664 0.063902 -0.198998 -0.077234 -0.106659 0.017256 -0.330325 0.095191 -0.589723 -0.123535 0.052333 -0.009834 0.074015 -0.09215 0.043665 0.263868 0.133591 0.182163 0.134288 -0.301817 -0.439881 0.424602 0.079488 0.21153 -0.254362 -0.156178 0.080853 -0.087683 -0.122729 -0.010958 -0.317117 -0.188445 -0.318957 -0.252951 0.182442 0.072161 -0.117233 -0.139411 0.114248 0.407468 0.223749 0.036405 -0.079688 -0.120669 -0.205738 0.100257 0.583027 -0.455638 0.177867 -0.311851 0.274277 0.392815 0.332614 -0.067207 -0.154137 -0.050978 -0.396005 -0.651224 -0.965527 -0.445364 -0.189147 0.710063 -0.11135 0.030295 -0.306614 -0.347282 0.349986 0.010851 -0.373809 0.025534 -0.13128 0.196379 -0.405412 0.343283 0.350882 0.177632 0.44713 -0.071857 0.340207 0.069867 -0.029268 -0.393282 -0.205608 -0.267497 -0.450616 0.144298 -0.451965 -0.247808 -0.003646 -0.022652 0.125952 0.171251 -0.223168 0.076763 -0.104903 0.343326 0.407164 0.204976 0.050587 -0.581732 -0.258799 0.343138 0.139569 0.149069 0.237376 0.343706 0.275219 -0.338838 0.63607 -0.055801 0.149561 0.310553 -0.019379 -0.053648 -0.059319 0.238826 0.080488 0.053161 0.020667 -0.009006 0.052122 -0.294175 -0.236709 0.147347 -0.132969 0.304537 0.072697 -0.241688 0.221345 0.27108 -0.155338 0.206827 0.022334 -0.311931 0.394547 0.26412 0.013393 0.099844 0.197433 -0.159483 0.030799 0.317625 -0.0044 0.219863 0.096903 0.35079 0.030739 0.43152 -0.639831 -0.065744 0.133202 0.043084 -0.35567 -0.007481 0.116336 -0.114839 -0.049312 -0.13467 0.382829 0.46406 0.192407 -0.122646 0.148772 0.308524 -0.097677 0.034685 -0.122846 -0.287225 0.09357 0.330484 0.135914 0.367295 0.352166 0.063916 0.047475 -0.310118 -0.18897 0.685755 0.315169 0.109402 0.049431 0.59669
forest -0.481666 0.242328 -0.40168 0.308382 -0.038417 -0.381954 -0.219922 0.182447 -0.08055 0.163696 -0.189112 0.41651 -0.139823 0.28308 -0.419393 0.050235 0.223318 0.292497 -0.248551 0.249571 0.031829 0.097527 0.01886 -0.333097 0.01493 -0.191797 -0.458248 -0.495522 -0.086297 -0.613749 0.146934 -0.292136 -0.262989 0.162528 0.275791 -0.25125 0.515683 -0.293378 0.32745 0.20264 0.337985 0.527965 -0.577697 -0.157786 0.246401 0.032596 0.144144 0.563583 -0.083955 -0.032269 -0.024044 0.132125 0.318831 0.106716 -0.701757 -0.327677 -0.242131 0.392202 0.391424 -0.709791 0.560783 -0.206997 -0.02385 -0.351705 0.473038 0.076098 0.690103 -0.044651 0.101135 0.209721 0.446356 0.103777 0.053624 -0.210575 0.590063 0.124768 -0.553336 -0.444071 -0.369506 0.306177 0.037911 -0.004188 0.213184 0.358669 -0.039333 -0.181198 -0.317275 -0.160463 -0.115198 0.128574 -0.003346 -0.065655 0.089902 0.094897 -0.433852 0.231251 0.347599 0.135579 -0.021661 -0.110581 -0.242602 0.331989 -0.201869 -0.415322 0.214353 -0.130793 0.218024 -0.415723 -0.042639 0.196393 -0.017809 -0.086914 0.147499 -0.150937 -0.153482 -0.189549 -0.316746 0.042516 -0.005921 -0.300903 0.037279 0.383719 -0.019032 0.276717 -0.385229 0.13748 0.200481 -0.136835 0.239122 0.130177 0.173345 -0.101161 0.168622 0.503364 -0.558842 0.128264 0.65194 -0.191434 -0.399752 -0.348193 0.320254 0.298497 -0.461283 -0.197947 0.006323 0.147419 0.124837 0.370636 0.163665 -0.07371 0.014101 -0.128772 -0.257328 -0.134411 0.243908 -0.073498 0.118407 -0.060478 -0.187329 -0.254591 -0.012131 -0.274089 -0.093422 -0.165522 0.045738 0.242822 -0.45924 0.225607 0.07134 -0.165679 -0.381382 -0.354457 0.070782 -0.001854 -0.264794 -0.069545 0.921933 0.03747 -0.008517 -0.3519 0.544226 0.40782 0.005138 -0.30675 -0.357849 0.148402 0.30745 -0.142171 -0.257834 -0.291396 -0.195187 0.088252 0.189246 -0.179504 0.068851 -0.425494 0.376266 0.011423 0.058007 -0.02687
abuse 0.166357 -0.213087 -0.330996 0.182981 0.385751 0.231402 0.070024 0.102658 0.033892 0.109759 0.090679 0.586952 0.061705 0.276016 -0.036464 -0.117379 -0.015998 0.2046 0.073912 -0.071752 -0.433149 0.534576 0.523659 -0.27132 0.22599 0.34375 -0.122039 -0.211693 0.145507 -0.27194 -0.053925 -0.220887 -0.032671 -0.166492 0.416245 0.048722 0.354467 0.050736 0.347218 0.172826 -0.420341 0.232735 0.137557 0.208609 0.282815 0.311037 0.312341 0.21754 0.05977 -0.030369 -0.549138 0.39594 0.019321 -0.141744 0.223444 -0.136283 0.085433 -0.413804 0.319119 -0.3198 -0.232596 0.231455 0.034754 -0.075039 -0.215214 -0.118838 -0.348553 0.288991 0.025323 -0.016698 0.348592 -0.138423 -0.269585 0.617373 0.18126 0.110723 -0.344756 0.380904 0.052345 0.239268 -0.300649 0.006934 0.19628 0.001426 -0.234196 0.350308 -0.705487 0.208531 0.272786 0.692663 -0.248354 0.35778 0.213688 0.060783 -0.067831 0.097532 0.468002 0.075365 -0.136774 -0.071799 0.2093 0.13205 -0.374314 0.274745 -0.39352 0.045834 -0.550116 -0.224114 0.283191 0.148198 -0.273031 -0.039587 -0.088693 0.093668 0.198896 0.779105 0.461404 -0.124552 0.065931 0.096022 -0.245101 -0.024632 -0.248708 -0.236464 -0.091791 -0.324478 0.117515 -0.202977 0.468814 0.090398 0.142877 0.333102 -0.164324 0.108746 0.183935 -0.046382 0.204871 -0.084725 0.183771 0.093762 -0.181478 0.012618 -0.239167 0.114133 -0.011095 -0.203267 0.054959 -0.018148 -0.291349 0.049282 0.464053 0.172227 -0.218217 -0.129128 -0.297548 -0.077589 -0.215917 0.196909 -0.015552 0.190678 -0.06329 0.004053 -0.13515 -0.339327 0.465786 0.476135 -0.003632 0.415517 0.696177 0.221799 -0.189968 -0.379076 0.072906 -0.151142 -0.22221 -0.327423 0.05527 0.009338 0.015385 -0.186757 -0.018094 0.001416 -0.291859 -0.018635 -0.235731 0.276024 0.322623 -0.341631 0.061679 -0.079361 -0.127821 0.487675 0.094503 -0.317177 0.254123 0.497953 -0.343212 0.611037 0.042574 0.289062
criterion 0.40148 -0.281188 -0.357865 -0.062777 -0.10779 -0.108129 -0.245673 0.06345 -0.05217 -0.287324 0.273265 0.218766 -0.120956 0.068367 -0.261304 0.250757 0.357362 0.307781 -0.184528 0.412692 -0.297994 0.029608 -0.002854 0.402642 0.062547 -0.320128 -0.049114 -0.266471 0.490395 -0.292764 -0.256127 -0.168865 -0.359066 -0.006164 0.021024 -0.122759 -0.126353 -0.36932 -0.066309 -0.131599 -0.461662 -0.144157 0.058256 0.556979 0.430611 0.206301 0.253754 0.174055 0.512976 -0.206006 -0.306546 -0.511009 0.414357 0.020325 -0.112157 -0.36493 0.03109 -0.003636 0.157923 -0.380667 0.30755 -0.061165 -0.302081 -0.235971 0.154635 -0.253455 0.116942 -0.001023 -0.210717 -0.02208 -0.14223 0.440041 -0.143306 -0.04148 -0.037545 -0.158528 0.09032 0.208834 -0.096377 -0.124677 0.037242 -0.2363 -0.342483 -0.054592 -0.193118 0.374879 -0.151671 0.151578 0.144875 0.447695 -0.12775 -0.044447 -0.067732 0.267268 0.177192 -0.095652 0.268829 -0.201031 0.165588 -0.088869 0.083769 0.261011 -0.206012 0.348027 0.202888 0.226791 0.176242 -0.034487 -0.130574 0.052925 0.213765 -0.459782 -0.203657 -0.086177 0.027085 0.035847 0.047982 -0.179824 -0.377707 -0.005507 -0.079409 0.006746 0.311105 -0.411407 0.118612 -0.340507 0.222438 -0.104151 0.151529 -0.175241 0.063868 0.06899 -0.00655 0.05048 -0.101076 -0.219806 -0.015155 -0.064204 -0.016783 -0.419805 -0.055936 0.214935 0.044819 0.067346 0.35519 -0.396611 -0.130443 0.362094 -0.066827 0.056176 -0.019221 -0.119054 0.214002 0.00847 0.234686 0.196832 -0.117192 -0.138703 0.367397 -0.481785 -0.058479 -0.157238 -0.042283 0.02264 -0.080427 -0.025423 9.21E-4 0.366457 0.159379 0.185254 0.099582 -0.103384 -0.295722 -0.258403 0.159642 -0.052295 0.718837 -0.014692 0.61389 0.014277 0.023139 0.235348 -0.210362 0.108263 -0.020197 0.21221 0.404295 0.033841 0.323097 0.329288 -0.213368 -0.053648 -0.121767 0.379948 -0.226533 0.027847 -0.201527 -0.245196 -0.243241 -0.065779
sea 0.211048 0.187991 -0.241354 0.07694 0.076039 0.043364 0.08384 0.246686 -0.250215 0.003615 -0.359916 0.016727 -0.50445 0.269397 -0.014151 0.179358 0.261265 0.538277 -0.32391 0.042915 -0.184326 0.271811 -0.078189 -0.47801 -0.185125 0.177388 -0.686136 0.174912 0.32743 -0.241122 -0.307772 0.204201 -0.666555 0.219117 -0.379363 -0.271005 0.503397 0.371551 0.068481 0.318894 -0.311862 0.238847 -0.287541 -0.213243 0.497789 -0.044552 0.240096 0.040446 0.029495 -0.268762 0.235188 0.209192 -0.059653 -0.238494 -0.325276 -0.383831 -0.083291 0.322124 0.253524 -0.167402 0.105991 0.458637 -0.444555 -0.159896 0.361149 -0.02502 0.204314 -0.233684 0.266425 0.187435 0.308526 0.475878 -0.110564 0.305788 0.048872 0.444741 -0.554034 -0.66489 -0.083487 0.521309 0.27423 -0.002056 0.084929 0.071852 -0.231289 0.175418 -0.110351 -0.059041 0.100049 0.530974 -0.053325 0.242608 0.457954 0.119972 -0.201385 0.242363 0.216369 -0.006792 0.163915 0.197576 -0.008656 -0.078752 -0.167613 0.364216 -0.379965 -0.169218 -0.113004 0.138243 0.197639 0.339176 0.19919 0.291987 -0.174714 0.037656 0.337422 -0.055309 0.230841 0.189372 -0.064329 -0.025048 0.192938 0.040972 0.428766 0.335935 0.393305 0.047103 0.239314 -0.299054 -0.023866 -0.021816 0.399444 0.033872 0.094631 0.041393 0.083079 0.250301 0.509842 -0.360778 -0.014665 -0.082662 0.011942 -0.008922 -0.046556 0.341738 0.156867 0.072661 0.416911 -0.12036 -0.094424 0.123338 0.271453 -0.042436 -0.206691 -0.17447 0.108757 0.136498 0.023784 -0.055924 6.4E-4 0.136637 0.437259 0.127032 -0.147701 0.011611 0.508165 0.333018 -0.289548 -0.404781 -0.005737 -0.30741 -0.365058 -0.189704 -0.11849 -0.015088 0.075232 -0.052345 0.808911 -0.132525 0.13182 0.197753 0.284142 0.025246 -0.022507 -0.136239 -0.163235 -0.02371 0.071948 0.050154 0.216957 -0.182023 -0.153797 -0.09407 0.28637 0.0164 0.186025 -0.536673 0.653207 -0.099459 0.126009 -0.1277
dollar -0.126003 -0.155822 0.118337 -0.179431 -0.083853 -0.385197 -0.138563 0.304341 0.082483 0.300853 -0.542551 -0.012887 -0.3317 -0.459782 -0.027339 0.072591 -0.126181 0.00539 0.332881 -0.015407 -0.301001 -0.119163 -0.434083 0.216481 -0.338295 -0.47588 -0.249319 -0.357366 -0.02469 -0.074305 0.369651 -0.160139 0.20844 0.388689 -0.131162 0.089314 -0.040204 0.046378 0.352683 0.11608 0.139804 0.302207 0.044516 -0.41146 0.60907 0.134873 0.239818 0.599651 0.570478 0.13991 -0.217091 -0.206945 0.148419 -0.062929 -0.510814 -0.246914 0.052859 0.21413 0.572329 -0.129201 0.162887 0.199967 -0.207916 -0.387678 0.432473 0.120587 0.176683 -0.222442 0.018914 0.471255 -0.337352 0.453785 -0.016944 0.108884 0.060393 -0.049993 -0.382238 -0.037232 0.090634 -0.130446 -0.027811 -0.098367 -0.079228 0.085516 -0.125342 0.67671 0.189918 0.384723 0.010634 -0.241732 -0.046812 0.178529 0.117746 0.663991 -0.060137 0.191166 0.677041 0.079594 0.315975 0.198634 -0.150621 0.529736 0.007208 0.106972 -0.190177 0.195738 0.630205 -0.192693 0.447041 0.03849 -0.05468 -0.247453 -0.817372 0.264423 0.343201 -0.126475 0.188249 0.175985 0.411928 -0.0965 -0.065814 -0.308563 -0.214188 0.103728 -0.163984 0.295609 0.091137 -0.565355 -0.16199 0.160187 -0.120871 0.109993 -0.525023 0.586457 0.628116 0.39227 -0.086549 -0.255926 -0.124132 -0.530212 0.04141 -0.504174 -0.096498 0.432454 0.008383 -0.246844 0.259653 -0.153493 -0.026492 -0.16926 0.129224 -0.247527 0.176637 -0.411322 -0.033018 -0.187978 0.090287 -0.23188 -0.132966 -0.148545 0.213167 0.306814 -0.379426 -0.411618 0.273562 0.601808 0.077179 0.186643 0.388743 0.453528 0.237623 0.313359 0.080844 0.326098 -0.135832 0.508871 0.241775 -0.175 -0.078559 -0.245372 0.396711 -0.068463 -0.310026 0.182669 -0.151503 -0.522184 0.016786 -0.321116 0.061258 0.101189 0.181668 -0.297075 -0.015212 0.038878 0.321099 0.316452 0.025937 0.261522 0.42314 0.660394
example 0.315998 0.089395 -0.108495 -0.15742 0.097891 -0.389421 -0.301692 0.343808 0.300728 -0.06719 0.375184 -0.025741 -0.30029 -0.101399 0.106622 0.238526 -0.009056 0.279713 -0.307749 0.110683 -0.461815 0.110844 0.171691 0.208539 0.064963 -0.226256 -0.113081 -0.033812 0.22544 -0.367794 0.106968 -0.065855 -0.286883 0.289676 -0.223143 0.147862 -0.036586 0.159707 -0.095851 0.240704 -0.190578 0.210857 0.009762 0.064081 0.43627 0.060563 0.124734 0.124479 0.316818 -0.362869 -0.108504 -0.211428 -0.420755 0.288445 -0.31357 0.085049 -0.046834 0.104744 0.307112 -0.151148 -0.027286 0.085577 -0.11354 -0.503925 -0.063242 -0.050493 0.144705 0.133872 -0.171358 0.017699 0.108734 -0.104767 0.107472 0.00469 -0.013068 -0.079815 -0.079372 -0.048379 -0.033418 0.036434 -0.126071 0.070321 0.077661 -0.261356 -0.213374 0.280425 -0.151337 -0.082449 -0.04738 0.035348 -0.060681 0.120695 0.363164 0.054916 -0.034192 0.142293 0.02214 -0.055708 0.040528 -0.04993 -0.042343 0.096609 -0.142001 0.27892 -0.0982 0.092829 0.093249 0.240619 0.152143 0.328962 0.130953 -0.265386 0.087824 0.013372 -0.085346 0.520052 0.148413 0.296902 -0.126562 0.3139 -0.088977 0.080997 0.015461 -0.092491 -0.007519 0.024579 0.199542 -0.074162 -0.011663 0.185338 -0.043582 0.218749 0.019937 0.287138 -0.195254 -0.109373 -0.13314 0.110606 0.003263 -0.075673 -0.02978 -0.286364 -0.134268 0.106242 -0.23784 -0.118287 0.0521 0.232996 -0.09384 -0.043719 -0.218759 0.067397 -0.137319 0.196956 0.080955 -0.275607 -0.101862 0.131979 0.019813 0.12909 -0.190545 -0.246448 -0.221193 0.185024 0.37051 0.195217 -0.185069 0.258855 0.150299 0.331343 0.181205 -0.185601 0.207284 -0.395104 0.149354 -0.217989 0.368587 0.042092 -0.156669 -0.055049 0.130578 0.0412 0.023016 0.094434 0.012907 0.21422 0.135241 0.170659 0.130158 0.201476 0.051548 -0.114246 -0.213889 0.291022 -0.065987 0.140821 -0.070496 0.18832 0.131557 0.130625
journal 0.42442 0.22119 0.319163 0.123518 -0.19375 -0.171705 -0.444837 0.240534 -0.282144 -0.023982 -0.199112 0.849294 0.03951 0.248553 0.220175 -0.314741 -0.12479 0.391417 -0.481272 -0.307213 -0.458516 -0.117597 0.051231 -0.220729 -0.020139 -0.063037 -0.367385 -0.039877 0.621115 -0.735307 -0.051208 -0.121027 -0.592425 0.020614 -0.342261 -0.194417 0.085272 0.189298 0.323872 0.169214 -0.485571 0.186064 0.019234 0.022022 0.029374 0.137417 -0.209242 0.211697 0.348408 -0.727477 -0.32188 -0.457174 0.335178 0.140762 -0.395307 -0.191331 0.074354 0.384213 -0.091952 0.051561 0.113358 -0.437514 0.009108 -0.43651 0.510157 -0.081889 0.413107 -0.147989 -0.042678 0.238442 -0.392561 -0.116413 0.446194 0.385088 0.112235 0.288761 -0.370761 -0.419568 -0.417239 -0.411186 0.471009 -0.364465 0.185369 -0.264921 0.327354 -0.346343 -0.545644 -0.034751 -0.062771 0.494486 -0.61119 0.384185 0.234165 -0.061649 0.195583 0.033276 0.172248 -0.006474 0.452748 0.416534 0.46615 -0.044308 -0.086203 0.335195 -0.016706 0.5767 -0.158065 -0.200003 0.490375 0.311008 0.313901 -0.048973 0.263244 -0.086505 -0.030752 -0.160107 0.037789 -0.043054 0.147368 -0.311492 -0.653955 -0.068142 0.206991 -0.29296 0.389831 0.343747 0.535164 0.283743 0.119361 -0.046994 -0.290606 0.059705 -0.085881 -0.071019 0.310761 -0.059179 0.255534 0.087761 -0.184262 0.687138 -0.217853 0.513772 0.014497 -0.153394 0.456387 -1.013281 0.020819 -0.004313 0.059103 -0.287894 0.038904 0.143042 -0.017106 0.481675 -0.746225 0.390471 -0.423549 -0.325492 0.017465 -0.264105 0.236584 0.566401 -0.147584 0.362934 -0.027149 -0.320981 -0.765424 -0.195179 -0.079998 0.894764 -0.228215 -0.52714 -0.093888 0.019584 0.611479 0.029706 0.923028 0.065705 -0.182215 -0.246164 0.141805 -0.499855 -0.364096 0.72672 0.127347 -0.362438 0.635839 0.273922 0.22625 -0.162104 -0.031528 0.161591 0.402857 -0.070518 -0.04887 0.257217 -0.212798 0.501265 0.214173 -0.022122
laundering 0.357651 -0.173449 0.022569 0.115279 0.294911 -0.27832 0.291676 0.627355 0.305605 -0.207126 -0.208964 0.130874 -0.462682 -0.120235 -0.164448 -0.274949 -0.200339 0.364602 0.256531 0.135603 -0.290264 0.247718 0.677933 -0.899821 0.433131 0.572181 -0.480263 -0.76409 -0.104518 -0.293222 0.229103 0.100795 0.051493 0.739499 0.053522 0.384274 -0.203567 -0.131691 -0.106322 0.503508 -0.030114 0.185974 0.578861 -0.365677 0.374187 0.304138 -0.093208 0.548606 0.030763 0.239165 0.122301 -0.409005 -0.213758 0.124168 -0.334671 -0.369516 -0.550328 -0.341979 0.445796 -0.309415 -0.2771 -0.78632 -0.083767 -0.862829 0.123532 -0.139918 0.142431 -0.298619 0.19739 0.246401 -0.077271 -0.099668 -0.89882 -0.13757 0.758424 0.325294 -0.090459 0.104286 0.21751 0.208941 -0.076579 -0.277951 -0.170686 -0.111506 -0.74982 -0.286097 -0.634034 -0.177319 0.014131 0.801495 0.527866 0.15597 -0.3917 0.069295 0.437574 -0.086418 0.69383 -0.001035 0.397734 -0.565714 0.468213 0.13668 -0.581563 -0.180225 0.463645 -0.905678 0.006205 -0.380487 0.485265 0.281655 0.075117 -0.188629 0.203081 0.511598 0.055841 0.364846 0.254214 -0.293052 0.133479 0.101027 -0.201775 -0.410818 -0.31502 -0.230993 -0.066393 0.131502 -0.027786 -0.11072 0.40376 -0.21769 0.37508 -0.165487 0.214595 -0.326935 0.406978 0.314174 0.018121 -0.617586 0.258131 0.447899 -0.106447 -0.206017 -0.0704 0.345913 -0.473594 0.622702 -0.396166 -0.069293 -0.109015 0.497976 -0.006933 0.33352 -0.178365 -0.386799 -0.012221 0.344923 -0.029092 0.535244 0.177573 -0.28151 0.458237 0.341736 -0.315352 0.095433 -0.157806 0.546749 0.804395 0.418428 0.075872 0.003833 -0.069707 0.071606 -0.025633 1.046304 -0.253988 -0.309402 0.308675 1.006231 -0.259106 0.093101 0.680558 0.144695 -0.490962 0.299182 -0.178725 0.208606 -0.382002 -0.230136 0.435197 0.219244 0.017273 0.241273 -0.298023 -0.245858 0.52565 0.808749 -0.227151 0.370628 0.47792 0.340879
hotel 0.010008 -0.267071 0.233557 -0.098079 -0.159328 -0.141346 -0.290028 0.334544 0.099049 0.145097 0.219558 0.42868 -0.532499 0.008483 0.312732 0.189983 0.160057 0.222749 0.317462 0.177773 0.263191 -0.011235 -0.009435 0.133438 0.172861 0.216161 -0.420022 -0.31991 0.194794 -0.233598 0.07678 -0.140145 -0.349231 0.328084 0.061506 -0.088568 -0.006073 0.197116 -0.043577 0.169283 0.064986 0.376022 -0.169515 0.211804 0.674557 0.120903 -0.060543 0.019498 0.153769 -0.105119 -0.298556 0.066311 0.071771 -0.266476 -0.309176 -0.13127 -0.1966 0.239165 0.071795 0.31245 0.074204 0.32039 -0.54215 0.204464 0.093931 0.077099 0.208324 -0.195415 0.108385 -0.037807 0.168994 0.063048 -0.204268 0.065087 0.104521 0.059439 -0.435288 -0.281806 -0.451187 0.13828 -0.062853 0.309414 -0.320562 0.107315 -0.002625 -0.336704 0.004291 0.294576 -0.154109 -0.106514 0.130191 0.13314 0.018077 0.095774 -0.022579 0.228252 0.055332 -0.102173 0.353061 -0.384631 0.011714 0.042393 -0.381032 0.103176 -0.079162 -0.106402 -0.057007 -0.234246 0.235638 0.317318 -0.070231 0.158891 -0.008186 0.103012 0.220495 -0.036298 -0.037819 -0.598081 -0.178894 0.364065 0.066001 -0.057698 0.390993 0.488176 0.136001 -0.13623 0.634401 -0.334924 -0.117173 -0.017772 -0.591955 -0.132934 0.179428 0.070367 0.183955 -0.271719 -0.185146 -0.597575 -0.265424 -0.341958 -0.051572 -0.283872 -0.263931 0.11093 -0.406811 -0.11425 0.365423 0.109922 -0.095182 0.056605 -0.00802 0.376765 0.279138 -0.091692 -0.060001 0.028201 -0.141369 0.307172 -0.201296 0.199506 -0.04792 0.128056 -0.362353 -0.10663 0.060416 0.106049 -0.001766 0.039384 -0.114892 -0.231444 0.003133 -0.120283 0.171881 0.216202 -0.157097 -0.330265 0.271761 0.082241 0.287403 -0.42833 0.219858 0.213185 0.214471 0.111378 -0.44587 0.063195 0.017558 0.301489 -0.173522 0.028379 0.208497 -0.132139 0.05491 -0.270828 -0.042144 0.018147 0.320492 0.003434 0.203461 0.530863
term -0.163225 0.065364 -0.019244 0.051201 0.11409 -0.224668 -0.312756 0.086798 0.112002 0.467254 0.163659 -0.136118 -0.029571 0.418526 -0.470554 0.286384 0.194253 -0.078817 0.040042 0.089199 -0.339933 -0.070165 -0.105076 0.161074 0.028277 -0.235305 0.086788 -0.482121 0.039338 0.120619 0.113035 -0.09911 -0.116373 0.24998 0.549337 0.558281 0.138619 -0.505218 0.220674 -0.026229 -0.016241 -0.284928 0.318326 0.15196 0.443408 0.065773 0.244293 0.015578 0.500442 -0.116794 -0.134396 -0.313982 0.339545 0.444793 -0.438778 0.218371 0.08183 0.172512 -0.001469 -0.391907 0.220496 -0.352155 -0.215645 0.18149 0.051592 0.063007 0.170356 -0.026936 0.08109 0.214304 -0.573104 -0.140638 0.107235 -0.263323 0.312617 -0.584928 -0.471208 0.192695 -0.031595 0.303236 -0.245726 -0.264734 -0.113765 -0.024176 -0.139623 0.116815 -0.380401 0.27778 0.136004 0.430462 -0.225065 0.230278 0.632508 -0.052712 0.275863 0.503949 -0.105579 0.207347 -0.037944 0.010645 0.024525 0.224903 0.117119 -0.113642 0.033595 -0.204485 -0.024639 -0.432415 0.239601 0.242476 0.129584 0.284051 0.309449 0.071666 -0.166503 0.331374 0.143047 -0.357143 0.122978 0.110531 -0.066254 0.013611 0.293143 0.085995 -0.269551 -0.24839 0.233627 -0.190648 0.165898 0.049248 0.132419 0.15869 -0.067262 0.298249 0.144895 -0.158695 -0.022835 -0.236353 0.073867 -0.218107 -0.245735 -0.099172 0.065728 0.411952 0.137277 0.079606 -0.166224 0.470078 -0.362305 0.06568 -0.246248 -0.110786 -0.009138 0.050087 0.047789 0.33217 -0.017359 -0.36878 -0.523195 0.09315 0.240352 0.493485 -0.581352 0.007349 -0.048361 0.065654 0.148489 0.464183 -0.015615 0.537876 0.224874 0.244659 0.145077 0.213326 0.07756 0.260523 0.148865 0.153554 0.13934 -0.48061 0.127068 0.057663 0.217857 -0.015795 -0.004374 0.090166 0.197079 0.116753 0.442269 0.31297 -0.230237 0.259824 -0.275173 0.64402 0.160403 -0.193001 -0.216467 0.006354 0.057665 -0.050426
listing -0.311475 0.026961 -0.24925 -0.053646 -0.542308 -0.065389 -0.562369 0.104492 -0.21908 -0.16259 0.050668 -0.291588 0.053683 0.193352 -0.167307 0.18767 0.027353 -0.252216 -0.169818 -0.048288 -0.197726 0.235631 0.153127 0.229232 0.195398 0.086398 -0.127343 -0.639175 0.013307 -0.177528 -0.179279 -0.008371 -0.025679 0.522377 0.185026 0.082999 -0.107352 0.162128 0.077814 0.423817 0.128919 0.203694 -0.06336 0.307432 0.271233 0.380766 0.46329 0.29509 0.515893 -0.446527 -0.29408 -0.695351 0.096937 0.225627 -0.462144 -0.312683 0.107496 -0.064705 0.177539 -0.128689 0.277431 0.552772 -0.059583 -0.544796 0.313738 -0.162576 0.473044 -0.053107 0.232481 -0.185949 -0.0033 0.054021 -0.075488 -0.197429 -0.031105 0.184573 0.030797 -0.014194 -0.124015 0.143564 -0.224157 -0.127743 -0.087946 -0.001221 -0.053177 0.080488 0.176087 -0.198373 -0.098952 0.003738 0.098948 -0.065504 0.228439 0.497689 -0.059125 0.748971 -0.167683 0.097755 0.115756 -0.388207 0.417998 0.044856 -0.112505 -0.168666 -0.151115 0.175004 -0.029883 -0.328037 0.020243 -0.141114 0.095039 -0.061286 0.123726 0.287829 0.319261 -0.017523 0.00349 0.011359 -0.610017 0.193958 -0.233127 0.065451 0.163236 0.150007 -0.026336 -0.116544 0.367786 0.317495 0.098984 0.136291 -0.151541 -0.101036 0.402444 0.11767 -0.224647 0.384932 -0.041919 -0.26277 0.127063 0.309576 -0.432686 -0.413247 -0.217637 -0.011798 0.260916 0.145221 0.287242 0.454482 0.159923 0.134681 -0.058229 -0.0202 -0.002578 0.08261 -0.144038 -0.933668 0.110991 0.159225 -0.144447 -0.033108 0.400997 -0.092786 -0.475768 -0.035384 -0.226912 0.186754 -0.426159 0.27606 0.377609 -0.019398 -0.055438 -0.148707 0.406825 -0.109013 0.080586 -0.171981 0.500569 -0.270539 0.46837 0.048005 -0.072041 -0.041255 -0.474667 -0.030932 -0.279596 0.385631 0.265921 0.059885 0.250455 0.244833 -0.158087 -0.43369 0.482112 0.274425 0.498156 0.799671 0.150855 -0.342782 0.601746 -0.068873
chemistry 0.277148 -0.135939 0.122799 -0.350655 0.245717 0.134181 0.562749 0.439815 -0.387745 0.042321 -0.477259 0.649133 -0.372051 0.397346 0.308936 0.391917 -0.079719 0.473939 -0.228822 0.23837 -0.419352 0.56041 0.102762 -0.143843 -0.110931 0.19161 -0.222954 -0.538604 0.377673 -0.674458 -0.050301 -0.086353 -0.551345 -0.21319 -0.034512 0.364958 -0.001648 0.012565 0.310967 -0.029341 -0.317265 0.076317 -0.567046 0.142284 0.254114 -0.092899 -0.362174 0.0525 0.545439 -0.529705 -0.472081 0.063301 0.197714 0.181651 -0.194696 -0.010649 -0.206543 0.387701 0.35258 -0.559102 0.081407 0.061242 0.072575 -0.315164 0.132827 -0.144467 -0.418103 -0.207154 0.170144 -0.176946 0.257652 0.476563 -0.184756 -0.087772 -0.057696 0.114675 -0.227327 -0.319202 0.029778 0.162819 -0.075199 0.061158 -0.215954 0.040524 0.180485 -0.112715 -0.096904 -0.058481 -0.119331 0.167625 -0.429283 -0.177608 0.215422 -0.197817 0.304894 -0.126596 0.445723 0.51251 -0.099334 0.258725 0.630073 0.174506 0.173069 0.357178 0.466193 0.348831 0.269207 -0.050425 -0.669786 -0.105527 0.042022 -0.24154 -0.061256 -0.471599 0.055953 -0.101668 -0.231466 -0.457852 0.142583 0.067634 0.388481 -0.003187 0.112492 -0.290094 -0.235391 -0.493973 0.771164 -0.374627 -0.081639 -0.248156 0.099126 0.112031 0.18 -0.005943 -0.156235 0.138409 -0.119628 -0.302272 0.037607 -0.132585 -0.727697 0.408545 -0.244167 -0.087213 0.258073 0.34356 0.679059 0.264745 0.149365 -0.518667 -0.064968 -0.282104 0.083418 -0.271969 -0.185789 0.100152 -0.111091 -0.320657 -0.237272 -0.201925 -0.225763 0.859111 -0.083843 0.059983 0.467263 -0.201599 0.105027 0.118511 -0.355856 0.677604 -0.374837 -0.325107 -0.001093 -0.055896 0.099922 0.192318 0.25304 -0.0748 0.010797 -0.396931 -0.213845 -0.540019 -0.040016 0.26973 -0.106092 0.074984 0.172986 -0.047729 0.078082 0.27398 -0.316428 0.330772 0.101312 0.211236 -0.299068 0.058071 0.337159 -0.113257 0.172949 -0.026751
seafood 0.798503 -0.244929 -0.167964 -0.21299 -0.114763 -0.258007 -0.304752 0.468987 -0.301547 0.219517 0.206418 -0.331764 -0.592451 -0.271714 0.024662 0.250491 -0.003896 0.108059 -0.020339 0.365163 -0.383233 0.138327 0.19249 -0.342721 0.208819 -0.297014 -0.309565 -0.664802 0.217482 -0.427732 -0.167523 -0.093213 -0.578624 0.631424 0.021146 0.04272 0.407216 0.213947 -0.293917 0.318084 -0.641863 0.334285 -0.167366 -0.013987 0.547488 0.394589 0.616332 -0.262766 0.401642 -0.089907 0.1354 -0.275876 -0.086686 0.497119 -0.52211 0.122069 -0.399161 0.285184 0.325369 -0.017158 -0.109927 0.25242 -0.182277 -0.445563 0.068736 -0.729219 -0.350579 -0.162898 -0.08931 0.096019 -0.123377 0.283543 0.096547 0.36493 0.018221 -0.351741 -0.605751 -0.281386 -0.081765 0.139914 -0.11816 0.469336 -0.064482 -0.579994 -0.109836 0.743555 0.039058 0.185527 -0.201188 0.141449 -0.028181 0.08625 -0.061395 0.185377 0.014105 0.547317 -0.206143 -0.20253 -0.001452 -0.544481 -0.255837 0.013916 -0.147254 -0.139067 -0.450731 0.367408 0.355607 0.347149 -0.467359 0.03229 0.043775 0.417427 -0.370171 -0.134423 0.221666 -0.314249 -0.388987 0.574178 0.096424 -0.419122 0.066012 0.129985 0.492734 0.12224 0.617606 -0.199825 0.475886 -0.287415 -0.356793 0.068796 -0.183008 -0.180617 0.2942 0.27379 -0.293789 -0.27658 0.331785 -0.126644 -0.348275 -0.065407 -0.776427 -0.679471 0.131762 0.442062 -0.070432 -0.056134 0.422301 -0.333362 0.267435 -0.005492 0.424307 0.676709 0.199218 -0.095092 0.395043 0.010373 0.114567 -0.376337 -0.381798 -0.310379 0.240088 0.146203 -0.571999 -0.265669 0.092996 0.073203 0.357809 -0.262883 0.173081 -0.326552 0.123516 -0.157062 -0.039278 0.357894 -0.111475 -0.066701 0.561496 0.146844 0.196458 0.007091 0.085739 0.199127 0.070644 -0.259159 -0.013625 0.076447 -0.090344 0.100064 0.249322 -0.385304 0.258632 -0.199059 0.201391 -0.355165 -0.471122 0.390553 0.217301 -0.272123 0.245046 -0.037028
CD -0.261467 -0.096432 -0.271315 0.213067 -0.124798 -0.452241 -0.478411 0.278979 0.179884 0.020253 -0.009425 0.14456 -0.761546 0.25447 0.242402 0.308432 0.356733 0.540587 -0.288653 0.367077 -0.49202 0.297262 -0.192596 0.196011 -0.046966 0.233485 -0.254458 -0.618248 0.683248 -0.355496 -0.332583 -0.430256 0.319877 0.296787 0.135553 0.039077 0.298346 -0.388729 -0.160091 0.393736 -0.463749 0.373145 0.167238 0.098161 0.313896 -0.081994 0.494849 0.379651 0.474614 -0.339788 -0.251213 0.037166 0.637855 -0.033059 -0.052704 0.30451 -0.051808 0.276596 0.207688 0.36445 0.063182 0.11012 4.73E-4 0.056881 -0.513458 -0.132238 0.253189 -0.058609 0.469442 -0.015721 0.078776 0.321628 -0.46173 -0.078615 -0.491796 -0.080038 -0.362924 -0.36446 -0.019248 0.320706 0.372507 0.332087 0.318843 0.153517 -0.548939 -0.009212 0.010315 0.208753 0.346584 -0.288224 -0.035961 0.316818 -0.258977 0.565697 0.51514 -0.083292 0.155754 0.041341 0.136969 0.066536 0.673181 0.276666 -0.244147 0.053317 0.443144 -0.081983 0.176125 -0.377053 0.027778 -0.180748 0.222447 0.288802 0.280843 -0.481777 0.049582 0.292306 0.513001 -0.135039 0.219308 -0.008619 0.054521 -0.012509 -0.690065 0.144597 -0.013622 0.143481 -0.397965 0.129483 -0.048224 0.652183 -0.547833 -0.006836 0.013987 0.061153 0.240728 -0.77179 -0.272228 -0.021171 0.271797 0.038774 0.216609 0.206839 0.155225 0.103367 -0.265987 -0.046789 0.061337 0.381157 -0.017464 -0.003831 -0.039972 0.051569 0.36346 -0.096898 -0.120653 0.141064 0.025851 -0.08748 0.484705 0.665968 0.194031 0.146683 0.113967 0.195491 -0.233095 -0.478153 -0.045437 -0.095913 0.339747 -0.230612 -0.060138 -0.473907 -0.232211 -0.127428 -0.103073 -0.071133 0.3367 -0.272202 -0.123882 -0.026407 0.178733 -0.44138 -0.11228 0.714968 -0.180963 -0.447796 0.054371 0.112725 -0.251252 0.208584 -0.616252 -0.015852 0.247547 -0.457365 -0.175528 0.511127 -0.161582 -0.00136 0.225161 0.568408
mind 0.298113 -0.010243 0.047367 -0.27563 -0.213519 -0.348528 -0.453357 0.050845 0.26047 0.113022 0.148687 0.151836 -0.120774 0.4381 -0.007648 0.274919 -0.160299 0.101727 -0.543758 0.220238 -0.370275 -0.103051 0.195742 -0.056877 0.034712 0.054775 -0.056169 -0.141776 0.130352 -0.266491 0.025462 -0.335476 -0.523145 -0.017179 -0.078198 -0.233372 0.1139 0.010561 0.19941 -0.245143 0.151331 0.193331 0.14662 0.131616 0.246894 0.115207 -0.1129 0.109276 0.381834 -0.128591 -0.342363 -0.16924 -0.214823 0.111482 -0.270664 -0.055973 0.24436 0.109853 0.213584 -0.033474 -0.034799 -0.049715 -0.396441 -0.268662 -0.073924 0.289567 0.161314 -0.27932 0.01482 -0.341105 0.193361 0.1424 -0.231834 -0.007062 0.197844 0.086986 0.073284 -0.462094 -0.116786 0.019202 0.083633 0.048471 0.21474 0.072083 -0.224281 0.24731 0.087539 -0.284336 0.420872 0.233999 -0.341635 0.474569 0.293915 0.065678 -0.03821 -0.014074 0.411205 -0.094567 -0.067278 -0.080161 0.269087 0.415462 -0.278653 0.19032 -0.068606 -0.167016 0.160711 -0.433207 0.306437 0.041862 0.242181 0.108139 6.22E-4 0.155835 0.179696 0.197917 0.022854 -0.286194 -0.025449 0.157363 -0.183203 -0.082079 0.392771 -0.368272 -0.020335 -0.162415 0.246886 0.175979 0.129454 0.275849 0.159612 0.18477 0.179229 -0.123807 -0.253616 -0.174813 0.090254 -0.130941 -0.01057 -0.150007 -0.011014 -0.21973 -0.093252 0.200336 0.066784 -0.052447 0.099096 0.048198 -0.221764 -0.33241 -0.089247 0.12648 0.291408 -0.205929 0.277031 0.141721 0.504852 0.124116 -0.034224 -0.397717 0.139014 -0.071416 0.020756 0.03834 -0.086655 0.003418 -0.062165 -0.034367 -0.017762 0.087329 -0.091399 -0.023744 0.114959 -0.097706 -0.099575 0.054787 0.005845 -0.450682 0.120998 -0.112448 0.18415 0.232339 -0.111028 0.244108 -0.010491 -0.175705 0.162229 0.177269 -0.182893 0.268467 -0.037097 0.047239 0.102801 -0.123484 -0.035715 0.060466 0.081172 -0.300204 -0.338368 0.189581
sex 0.172798 -0.565463 0.138015 0.534043 0.255343 -0.337826 -0.172289 0.262824 0.414154 0.412159 0.369025 0.635561 -0.088399 0.392514 0.141452 0.252261 -0.048807 0.066881 0.166944 0.163062 -0.167208 0.36678 0.431984 -0.236112 -0.076323 0.028458 0.296692 -0.262156 0.115402 -0.202047 -0.308754 -0.299316 -0.224311 -0.104136 0.289467 0.059513 0.27454 0.234294 0.120856 0.222875 -0.339488 0.201168 -0.069129 0.091127 0.270259 0.256241 0.512933 0.108715 -0.04351 -0.007767 -0.421577 0.372493 -0.220554 0.213382 0.04752 -0.148258 -0.326439 -0.174261 -0.147381 0.060159 -0.322071 0.142719 -0.484197 -0.178469 0.187175 -0.081034 0.243735 -0.080702 0.067878 -0.086514 0.091418 -0.318774 0.199783 0.582738 0.137014 0.068282 -0.483371 -0.075946 -0.018121 0.205038 0.127793 -0.175774 0.128727 -0.195094 -0.261423 -0.309878 -0.334736 0.121817 0.090438 0.243351 -0.600472 0.183882 0.05413 0.070663 -0.342708 0.375188 0.732169 0.291366 0.025276 -0.242477 0.015613 0.069746 -0.334163 0.40794 0.089855 -0.028999 0.272306 0.136032 0.329774 0.353656 -0.239839 0.226976 -0.009928 0.157091 -0.137985 0.282986 0.274204 -0.370801 0.340277 -0.100303 0.090678 0.03027 -0.194914 -0.382366 0.322423 -0.783521 0.477246 -0.294894 0.173272 0.317912 -0.038892 0.212571 0.009052 0.165868 0.014485 0.357175 0.057875 0.388646 0.054538 0.170493 -0.27841 -0.07351 -0.251121 0.054128 -0.287258 -0.255524 0.193835 0.274385 -0.099267 -0.008866 0.126942 0.176457 -0.017284 -0.445848 0.011375 0.166016 0.233719 -0.018583 -0.250637 0.239973 0.189647 0.077122 -0.461732 -0.338449 0.399224 0.28855 0.346272 0.227064 0.153951 0.456026 0.099084 -0.231805 0.25042 0.067757 -0.223379 -0.254709 0.335695 0.066136 0.115922 -0.263382 -0.024169 0.005022 -0.463845 -0.182065 -0.020296 -0.089747 0.315306 -0.135385 -0.151822 0.204842 -0.884177 -0.027215 -0.098266 -0.067746 0.080309 0.550582 -0.1059 0.149486 -0.31364 0.394104
food 0.406989 -0.037518 0.215565 0.057324 0.306347 -0.220494 -0.156309 0.377704 -0.338596 0.175272 -0.093728 0.325432 -0.490684 -0.023215 -0.087885 0.277926 -0.231302 0.542733 0.135512 0.241664 -0.28859 0.260574 -0.016738 -0.263097 -0.06313 -0.202581 0.013831 -0.87136 0.389215 -0.248859 -0.11591 -0.162227 -0.265 0.225757 0.238197 -0.104915 0.123271 0.316247 0.016444 0.301497 0.052918 -0.156103 0.099369 0.329022 0.045284 -0.094812 0.222155 -0.035865 0.047014 -0.237867 0.070952 0.215084 0.283739 0.128673 -0.130673 0.120494 -0.120951 0.238834 0.326826 -0.086943 0.110923 0.078446 -0.335934 -0.115271 0.342348 0.051183 -0.482774 -0.217068 0.148112 0.302242 -0.181514 0.243556 -0.456062 0.122573 -0.02617 0.188829 -0.401105 -0.4925 -0.037177 0.105299 -0.020551 0.27556 0.149227 -0.254847 0.075489 0.433817 -0.006036 0.303364 0.002056 0.019788 0.117523 0.105661 0.165525 -0.068739 -0.15496 0.042433 0.258203 -0.353387 -0.142829 0.07705 0.026807 0.125375 0.1343 -0.140005 -0.185945 -0.074311 -0.110037 -0.043415 -0.029644 -0.003487 -0.177194 0.258955 -0.089115 0.237467 -0.027468 -0.063246 0.019194 0.354162 -0.042443 -0.105636 0.130285 -0.052134 0.330444 -0.112126 0.224684 -0.076456 0.38088 -0.218757 0.046678 0.174592 -0.360362 0.182342 0.290126 0.149976 -0.102103 -0.198308 0.606351 -0.52571 -0.0324 -0.132591 -0.199257 -0.491973 -0.636663 0.581557 -0.1239 -0.023798 0.104433 -0.189769 0.262465 -0.581587 3.03E-4 -0.177359 -0.266208 -0.235623 -0.094733 0.367177 0.060236 -0.14873 0.055649 0.410604 0.319711 -0.076504 0.202138 0.087647 0.442966 0.272781 0.507446 -0.012659 0.093236 0.078229 0.019076 -0.446461 -0.206086 0.320817 0.140859 -0.217461 0.384959 0.296499 -0.115281 -0.209617 0.112773 0.077601 -0.291759 -0.045219 -0.051586 0.155349 0.223361 -0.039062 0.129196 -0.016386 0.329443 0.152156 0.310172 0.096908 0.072035 0.071862 0.030661 0.119132 0.255123 0.175104
precedent 0.140358 -0.045033 0.134304 -0.285249 -0.421521 0.16966 -0.491984 0.349766 -0.157342 -0.171007 0.413662 -0.021671 -0.189319 -0.139352 -0.03352 0.103172 -0.10677 0.140835 -0.285056 -0.249938 -0.123692 -0.169903 -0.075799 0.234689 -0.224098 -0.217455 0.027378 0.154137 -0.02266 -0.094572 -0.474093 -0.132098 -0.206846 -0.00256 0.187826 0.054306 -0.002391 -0.184968 -0.136503 0.072644 0.021127 0.038789 0.631518 0.514824 0.245961 0.447117 0.315993 0.273398 0.243036 -0.509088 -0.156925 -0.285879 -0.071983 -0.100413 -0.126246 0.092324 0.492963 0.351496 0.454618 -0.564615 -0.293906 -0.145055 -0.019515 -0.633272 0.126238 -0.016417 0.043522 0.167397 -0.256345 -0.098297 0.230218 -0.023859 -0.056542 -0.274766 0.352529 -0.15773 0.361537 -0.283792 -0.157221 -0.430074 0.133884 -0.643599 -0.029391 0.353258 -0.069134 0.274026 -0.113877 -0.041826 0.345105 0.51424 -0.134034 0.461764 0.16456 0.5482 0.186418 0.265167 -0.251384 -0.194549 0.008854 -0.641005 -0.042889 0.563951 -0.064802 0.160116 0.371163 0.114863 0.210603 -0.240464 0.263949 0.587666 0.020292 -0.005851 -0.003847 -0.308369 0.098312 1.019021 0.325026 -0.014947 -0.097964 -0.025891 0.025552 0.291741 0.456293 0.361812 0.274141 -0.359077 0.676726 0.042269 0.431661 -0.237631 0.609144 0.223301 0.331577 0.069842 -0.585019 -0.001366 0.012933 -0.192577 -0.074987 0.029915 -0.439432 0.143746 0.006957 0.093347 -0.447113 -0.005413 0.275426 0.725729 0.205864 -0.030346 0.036672 0.048083 -0.065548 -0.155016 0.374189 -0.138341 0.002782 -0.083553 -0.329576 -0.123532 -0.176345 -0.044154 -0.376564 0.172701 0.162061 0.101514 0.410379 0.332121 0.564587 0.230593 -0.126084 -0.112183 0.13289 0.132729 -0.005352 0.178804 0.166212 0.253281 -0.150051 0.213545 0.777593 0.533477 -0.197729 0.161226 -0.097969 0.261842 -0.00891 -0.333629 -0.077376 -0.31941 0.039322 0.080464 -0.144415 0.144235 -0.295377 0.31688 -0.208551 0.148649 -0.3545 0.224003
series 0.056334 0.025648 0.04523 -0.156636 0.306749 -0.164081 0.110464 -0.018068 -0.033443 -0.088246 0.340423 0.078941 0.013191 0.130682 0.068157 0.033367 -0.375555 0.439671 0.205744 -0.084974 -0.114888 0.090571 0.030587 0.015812 0.141762 -0.020732 -0.233577 -0.052675 0.3562 -0.304891 0.222701 -0.044894 -0.149551 -0.068684 0.142683 -0.201304 -0.119951 -0.141263 0.093958 0.032851 -0.419967 -0.059478 0.269853 -0.032441 0.232767 0.493311 0.203091 0.036536 0.561958 -0.496114 -0.064265 -0.077563 0.001803 0.577793 -0.53933 -0.118619 -0.137128 0.096532 0.442924 -0.41982 0.0932 0.414263 0.143505 0.207685 0.331654 0.394931 -0.085495 -0.269621 0.328458 -0.055063 -0.160445 -0.311386 0.324037 0.231433 0.306394 -0.271902 0.055579 -0.259392 0.260089 0.030346 0.352482 -0.14711 0.085836 0.270854 0.271199 0.042417 0.135155 0.315134 0.151198 0.377202 -0.228819 0.13456 -0.108422 0.165728 0.365596 -0.437176 0.313054 0.077186 0.174797 -0.029504 0.032321 0.149914 -0.031965 0.071948 0.223213 0.007591 -0.550868 -0.418866 0.22415 0.285529 0.152513 0.157567 0.197004 -0.003831 0.179639 0.124983 0.178885 0.018262 0.077949 -0.167822 -0.115581 0.194116 0.079027 0.368223 -0.18762 0.03771 0.107872 0.15333 -0.102537 0.270381 -0.120203 0.132098 -0.110757 0.263838 0.146351 -0.208031 0.073308 0.069398 -0.087937 -0.144133 -0.270222 -0.125209 -0.039691 0.105717 -0.230095 -0.125363 0.630458 0.326015 -0.324612 -0.292404 -0.357503 -0.075998 0.103557 0.187228 -0.044145 0.198705 0.398914 0.089316 -0.108675 0.207508 -0.147113 0.131458 0.084001 0.185304 -0.272975 -0.029039 -0.130555 0.236497 0.329943 0.190145 -0.14649 -0.030291 0.054909 -0.103108 -0.261691 -0.256165 0.156891 -0.064936 0.013274 0.064191 0.263023 -0.176044 -0.142184 -0.250518 -0.127559 0.255213 0.003615 0.033089 -0.133737 -0.098932 -0.090449 -0.086612 -0.047993 0.060067 0.082913 0.445387 -0.010409 -0.059418 -0.033842 0.189216
kilometer 0.037343 0.364472 0.201523 -0.30436 0.300476 -0.114321 -0.415778 -0.172021 0.489052 0.127968 -0.115208 0.026178 0.032878 0.080973 0.793978 0.119765 0.281148 0.168202 0.026188 0.151754 0.030894 0.128585 -0.003293 -0.206439 -0.431684 -0.104986 -0.185846 -0.533913 -0.102191 -0.264327 -0.04591 -0.072829 -0.324463 -0.029668 0.201379 -0.132306 0.12614 0.140325 0.247741 -0.255975 -0.163003 0.391563 0.04512 -0.154997 0.581831 -0.240593 0.438539 -0.19936 0.514211 0.018255 -0.198287 -0.040379 0.489376 0.062716 -0.310046 -0.109123 -0.2042 0.187868 0.169265 -0.375371 0.503422 0.241027 0.030176 0.10559 0.401708 -0.024474 0.256435 -0.368148 0.232567 0.26537 0.510183 0.377386 -0.328702 0.268144 0.20848 -0.228911 -0.926075 -0.384976 -0.437417 0.31749 0.042289 0.122601 0.492122 0.192974 0.085384 -0.385286 -0.267948 0.204538 0.134263 0.124356 0.171254 -0.094722 -0.23924 0.145098 -0.282013 0.202963 0.111253 -0.075867 0.212463 -0.32572 -0.031368 0.136681 0.229339 -0.115674 -0.178112 -0.27533 0.085943 -0.123097 0.250933 -0.248638 -0.243836 -0.236415 -0.38147 -0.353656 0.064353 0.015009 -0.014126 -0.08778 -0.055727 -0.193193 -0.155615 0.03309 -0.193341 0.082075 0.096972 0.247714 0.324518 -0.552918 0.261307 0.185335 0.523264 0.033855 -0.182387 0.605071 -0.024775 -0.041819 -0.242446 -0.159112 -0.134616 -0.178207 0.163417 0.403 0.313589 0.047863 -0.03036 0.569571 0.126498 -0.018024 0.245164 0.212569 0.025897 -0.071817 -0.096438 0.104404 0.248842 0.234197 -0.546722 -0.481352 -0.232635 -0.134288 0.567463 0.258941 0.01415 -0.15276 0.167839 0.499582 -0.657332 0.37014 -0.009575 -0.175443 -0.273672 0.005278 0.185175 0.245348 0.243753 0.099374 0.612269 0.316283 0.337595 -0.145166 0.487459 0.386356 -0.004968 -0.351528 -0.138935 0.214107 0.260408 0.017479 -0.216456 0.034053 0.271904 -0.100852 0.166523 0.182786 -0.115585 0.43867 0.395492 0.029732 -0.10424 0.023084
grocery -0.044122 0.119087 0.126701 -0.272623 -0.104606 -0.338088 -0.382739 0.445924 -0.178128 0.107329 0.255188 0.666902 -0.488404 0.326074 -0.193044 0.225015 -0.168481 0.265082 0.05462 0.288577 0.141574 -0.10216 0.052627 -0.001526 -0.177704 -0.208108 -0.103603 -0.800005 0.436088 -0.156119 0.201375 0.003729 -0.128978 0.587715 0.192615 0.032342 0.238052 0.425136 -0.01653 -0.038743 -0.280654 0.038676 0.180907 0.35361 0.081877 0.052467 0.339894 0.147383 0.140691 0.358715 -0.031816 0.105063 0.246695 0.239407 -0.504053 0.064145 -0.106047 0.191523 0.391408 0.147575 0.207185 0.180795 -0.280677 -0.18133 -0.415021 -0.111484 -0.12537 -0.377069 -0.50653 0.085311 0.23609 0.577731 -0.186528 -0.079455 0.015135 -0.035333 -0.448392 -0.279769 -0.183964 0.449767 0.200285 0.167416 0.020966 -0.354934 0.223414 0.28213 -0.488604 0.226742 -0.17767 0.298768 0.172171 -0.286505 -0.146339 -0.346545 0.114163 0.0719 0.171431 -0.394722 0.39112 -0.322475 0.333348 0.115808 0.362095 -0.402737 -0.202788 -0.10428 -0.175045 -0.239229 -0.27516 -0.085931 -0.107947 0.362616 -0.169425 0.070646 -0.063026 -0.027471 -0.254027 0.004435 0.180475 0.047103 -0.074179 -0.157886 0.226379 0.484269 0.428027 0.168944 0.094179 -0.126115 -0.235164 0.437414 -0.507237 0.340274 0.168602 0.056279 0.153614 0.048611 0.249146 -0.493142 -0.011803 -0.293975 -0.801232 -0.373785 -0.326494 0.519162 0.050072 0.102507 0.187387 -0.724588 0.0125 -0.014175 0.313926 0.144848 0.203566 0.233689 0.134642 0.220703 -0.072752 -0.013353 -0.36527 0.270651 0.346517 -0.013796 -0.236183 0.240575 -0.111142 0.108975 0.367723 0.356049 -0.101069 -0.050182 0.466279 -0.691154 0.097385 0.103823 0.321542 -0.23537 0.419777 -0.22684 -0.279383 -0.160845 -0.081506 0.002832 -0.266066 0.149621 -0.291224 0.034242 0.339719 -0.052477 -0.039004 0.111618 0.080796 -0.066872 0.060925 -0.263986 0.444189 0.18931 0.134556 0.149107 0.694695 0.569853
wizard 0.464085 -0.117127 -0.365964 0.076889 -0.270355 -0.632162 -0.193011 0.008488 -0.081747 -0.337283 0.537901 0.817177 -0.501839 0.615927 0.111812 0.435274 -0.127943 0.337422 -0.296552 -0.104561 -0.370514 0.120175 0.749456 -0.127881 -0.220204 0.189676 -0.169405 -0.889743 0.076394 -0.426386 0.411792 -0.274962 -0.091589 -0.00584 0.058168 0.213793 -0.241062 0.217536 -0.044594 0.092171 -0.524747 0.319092 0.215415 0.056722 0.637718 0.344358 -0.024317 -0.294877 -0.076053 -0.750147 0.044708 -0.090916 0.006238 0.068901 -0.111125 -0.371548 -0.406033 -0.204399 0.369283 -0.472285 0.456307 0.182579 0.071781 0.522753 0.189977 -0.127974 -0.116954 -0.115922 0.435079 0.219709 0.338095 0.216764 -0.263232 -0.151288 0.084384 -0.056402 0.794824 -0.42075 -0.194282 -0.460324 -0.183821 -0.341893 0.082165 -0.334732 0.166498 -0.426756 0.468994 0.035352 0.616299 -0.433161 -0.201214 0.364533 -0.028541 0.433225 -0.075458 0.017182 0.333866 0.347681 -0.137127 0.075999 0.700966 0.163658 0.069762 0.265278 0.11868 0.087308 -0.143038 -0.301048 0.511058 0.315623 -0.164627 0.16398 0.144826 -0.668282 -0.147887 0.552178 -0.195582 -0.140248 -0.165219 -0.128656 0.532476 0.28489 -0.430677 -0.437503 -0.490696 1.11E-4 0.008241 0.300405 0.506006 0.115233 0.590258 0.720692 0.178646 0.464159 0.238938 -0.59613 -0.249462 -0.161001 -0.210583 0.147217 -0.22123 -0.096064 -0.617198 -0.045371 0.278224 -0.075185 0.585565 0.068126 -0.14822 0.333148 -0.054624 0.363872 -0.101365 -0.236966 -0.310597 0.343979 0.351904 -0.05317 0.153086 0.208142 -0.08341 0.438819 0.064057 -0.409376 0.076786 0.059679 0.003914 -0.129781 0.511029 -0.035587 -0.19641 0.20449 -0.174902 0.137935 -0.313082 -0.141252 -0.264194 -0.028875 0.19734 0.67548 0.075109 -0.040249 0.396403 0.312199 -0.211918 -0.250978 0.233074 -0.491756 -0.367359 0.286805 -0.619573 -0.11531 -0.030473 0.240098 0.347682 -0.094907 -0.305603 0.36657 0.203966 0.323715
information 0.147075 -0.056823 0.202242 0.123532 -0.173961 0.013382 -0.420847 0.447626 0.356381 -0.293499 0.01641 0.150024 -0.38328 0.025906 -0.012844 0.112459 -0.422101 0.386598 -0.156406 0.159989 -0.470612 0.088702 0.138849 -0.178614 0.015427 -0.059254 -0.366253 -0.295964 0.581432 -0.211306 -0.115049 -0.183134 -0.40701 0.654445 -0.013496 0.070475 0.228946 0.017088 -0.037092 0.141158 0.389716 0.082938 -0.074445 0.411647 0.265794 -0.040506 0.231584 0.395198 -0.046925 -0.161187 0.112987 0.199226 -0.170235 0.068734 -0.45568 0.34378 0.062905 -0.325866 0.342381 0.254265 0.218247 0.243109 -0.066849 -0.192943 0.093761 0.230706 -0.246289 0.075306 -0.197026 -0.174865 0.125214 -0.186891 -0.053874 0.101332 0.192499 -0.275694 -0.525081 -0.226448 -0.074892 -0.046694 0.109524 -0.096079 -0.057974 0.190878 0.302969 0.166029 -0.191063 -0.093503 0.447098 -0.209943 0.177196 0.185246 -0.238939 0.43785 0.158097 0.426566 0.276472 -0.253698 -0.072697 -0.452005 0.296582 0.173585 0.127782 0.109385 0.216116 0.202107 0.011917 -0.090177 0.081998 0.469016 0.215264 -0.069391 -0.28593 0.447532 0.073432 -0.010552 0.305156 -0.029575 -0.322944 0.104543 0.254772 0.343366 -0.130793 -0.394641 0.256626 -0.070186 0.483399 -0.029941 0.156913 0.068721 -0.11906 -0.106244 -0.073245 0.201877 -0.423603 0.345205 -0.073055 -0.121892 0.040808 0.055611 0.375026 -0.008418 -0.034025 -0.013404 0.415313 0.105743 -0.162617 -0.050163 0.09339 -0.187435 -0.219935 0.245174 0.111363 0.130941 0.632141 -0.273458 -0.318004 8.37E-4 -0.241274 -0.242399 0.096314 -0.064468 0.094549 -0.002242 -0.177938 -0.085476 0.044885 0.179961 0.139638 0.397592 0.07346 -0.446282 -0.104657 -0.371687 0.008936 -0.38971 0.858694 0.023254 0.330673 -0.020998 -0.067114 -0.145299 -0.390685 -0.188079 0.062536 0.184779 0.054269 0.001643 0.282156 0.376529 -0.065202 0.567636 -0.11189 0.291885 0.458155 0.295219 -0.159308 0.288245 0.259064 0.091909
Israel -0.029718 0.099017 -0.17334 0.403063 -0.088368 -0.403488 0.033517 0.163568 -0.108209 -0.01668 -0.240337 0.07665 -0.168408 0.143329 0.223863 0.527037 -0.521192 0.305692 0.240288 0.294116 -0.547836 0.113721 -0.129034 -0.28724 0.246668 -0.06107 0.074423 -0.57031 -0.02351 -0.318064 -0.470153 -0.102501 -0.552418 -0.222638 -0.173382 0.038305 -0.091986 0.299923 0.21633 0.002674 -0.454471 0.195652 0.050853 -0.14618 0.058411 -0.193708 0.255403 0.058397 -0.174431 0.204623 0.048403 -0.705261 0.231966 -0.025426 -0.306294 0.20784 0.212412 0.100016 -0.17831 -1.048928 0.016851 0.248044 0.186549 -0.348014 -0.032244 0.286004 0.040186 -0.721773 -0.036465 0.13707 -0.180165 -0.028623 -0.126344 0.572354 -0.010532 0.097047 -0.390183 -0.132532 -0.167229 0.374613 0.160099 -0.473933 0.200524 -0.280317 0.068486 0.145913 -0.391625 -0.166951 0.338052 -6.72E-4 0.481881 0.501802 0.649106 0.026885 0.652819 -0.018339 0.441778 -0.05005 -0.04588 -0.291213 -0.194073 0.670364 -0.461701 0.210812 -0.18687 -0.149088 0.112032 -0.369973 0.122535 0.059366 0.066653 -0.080838 -0.136475 0.241517 0.539584 0.239786 0.56106 -0.447874 -0.387159 0.156344 -0.245344 -0.118175 0.24308 0.151659 0.080378 -0.087551 -0.037494 -0.214181 -0.042095 0.035969 -0.200955 0.091328 -0.076758 0.004155 0.438974 0.196652 0.163807 -0.04653 -0.364096 -0.049064 0.0142 0.132252 0.171098 -0.025736 -0.446972 0.04061 0.299054 -0.160449 0.034141 -0.494798 0.059599 0.302536 -0.138085 -0.218483 8.45E-4 -0.183196 -0.149122 0.484335 -0.40789 0.175359 -0.40305 -0.240485 -0.078134 -0.205302 -0.018169 -0.673562 0.202112 0.082592 0.483615 0.076452 -0.058949 0.377175 0.40569 -0.134836 0.103552 0.183577 0.59964 -0.073743 0.124142 0.081999 0.395436 0.130049 -0.091575 -0.37622 0.344663 0.223059 0.557361 0.439909 -0.10057 -0.1428 -0.335673 0.384521 0.143251 -0.106291 0.080605 -0.090441 -0.398971 0.080819 -0.050272 0.10498
brandy 0.408234 -0.065741 -0.049032 0.175573 0.044346 -0.431486 -0.352807 0.057051 0.057914 0.217687 0.327642 0.238555 -0.928465 0.040584 0.31176 0.38875 0.009813 0.670307 -0.427604 0.024852 -0.557035 0.087591 0.015269 -0.223053 -0.202586 0.138728 -0.26025 -0.194614 0.228744 -0.502712 0.063845 0.23319 -0.652242 0.116881 0.013866 0.008174 0.43016 0.166039 0.093855 0.169662 -0.374739 0.122429 0.024134 0.05577 0.355024 -0.131638 0.507385 0.236487 0.268888 -0.322523 -0.430051 -0.124888 0.122538 0.329828 -0.02353 0.068604 -0.046439 0.332278 0.086427 -0.218643 -0.169414 0.006353 0.141231 -0.260186 -0.218984 0.078207 -0.3416 -0.299315 -0.290523 0.285364 0.42054 0.228694 -0.314278 0.371951 -0.119606 -0.298577 -0.182361 -0.630073 -0.070352 0.471375 -0.199124 -0.069048 0.012997 -0.116342 -0.225368 0.079416 0.179405 -0.143919 -0.049078 -0.068243 0.080316 -0.035817 0.300796 0.205943 0.171775 0.14358 0.40959 0.095675 0.420098 -0.047934 0.131908 0.089053 -0.273462 -0.010462 -0.322439 -0.09727 0.06807 0.003607 -0.245725 0.089481 -0.48004 0.454918 -0.059133 0.087594 -0.056642 0.250183 0.205657 0.50181 0.045655 -0.308963 0.19661 0.278823 0.174024 -0.084531 0.263631 -0.110056 0.065327 -0.277462 0.01658 0.639221 0.064578 0.395721 -0.239322 0.027198 -0.117427 -0.486388 0.157233 -0.113653 -0.037991 -0.111564 -0.244226 -0.140554 -0.180073 0.310811 0.090356 -0.115772 -0.253514 0.219163 -0.027439 0.098943 0.042736 -0.011517 -0.511391 -0.313053 -0.457286 0.123204 0.047673 -0.19111 0.079435 0.298339 0.236363 0.164944 -0.283311 -0.057388 -0.067019 0.224421 0.037414 -0.187853 -0.114789 -0.059584 -0.086245 -0.047657 -0.236849 0.114343 0.227856 0.116279 -0.112797 -0.066401 -0.256366 -0.160153 0.002322 -0.250932 0.347157 -0.040665 0.086092 -0.03052 0.073374 0.331082 -0.034504 -0.047955 -0.22524 -0.213963 0.096665 0.084038 -0.241062 0.041532 0.561547 -0.152821 -0.064054 0.088668
interview 0.041642 -0.340123 0.137878 -0.036956 -0.342169 -0.276086 -0.613138 0.406311 0.407308 4.8E-5 -0.236439 0.404538 -0.093126 0.267093 -0.059127 -0.020343 0.172373 -0.046731 -0.11634 0.06998 -0.154409 0.347176 0.070907 0.311886 0.014768 -0.164031 -0.0988 -0.051141 -0.035605 -0.233393 -0.195494 0.330387 -0.069987 0.344295 0.024065 0.149798 -0.005972 0.046925 -0.057022 -0.509975 0.00387 0.094605 0.114408 0.366758 -5.41E-4 0.373186 0.346111 -0.301295 0.238991 -0.709158 -0.032491 0.310501 -0.125218 0.5436 -0.167861 0.13158 -0.017336 0.14898 0.622033 0.026945 0.082253 0.18437 -0.122682 -0.060795 0.166012 0.169518 0.714758 -0.089635 0.333646 -0.007531 -0.206407 -0.145324 0.313989 0.29372 0.048391 -0.114025 -0.348918 0.301779 -0.187778 0.423498 0.271612 -0.056044 0.478462 -0.270548 0.081305 -0.073063 0.032475 -0.017417 0.443437 0.527748 0.213098 -0.089493 0.13149 -0.169254 0.197158 0.236121 0.637167 0.429054 -0.076409 -0.434167 0.364951 0.329939 -0.395058 -0.137056 0.139216 0.128689 -0.258472 -0.341381 0.186595 0.719238 0.106758 0.395932 -0.15048 0.270869 -0.027399 0.13912 0.054482 -0.069763 -0.278711 0.363311 0.123061 0.171821 0.132814 0.025116 0.101008 0.030761 0.216239 0.056875 -0.144955 -0.095762 -0.409499 -0.3692 -0.040056 0.288053 -0.029729 0.028305 0.252109 0.064525 0.456841 -0.070346 -0.091368 0.053727 0.24553 -0.017302 -0.079763 -0.52154 0.144192 0.055016 -0.458623 -0.284805 0.153965 0.267378 -0.350931 -0.207216 -0.232885 -0.221974 -0.465414 0.225377 0.10318 0.280805 0.143756 0.174586 0.093235 -0.035249 -0.173375 0.100893 -0.165346 0.080587 -0.133797 0.22809 -0.219429 0.0405 0.124348 -0.078388 0.016997 -0.248394 -0.089362 0.025594 -0.053071 -0.09962 -0.248998 0.082038 -0.26116 0.308993 0.428711 0.294147 -0.006615 0.113038 0.290227 0.522138 -0.133469 0.355336 0.06524 0.169944 -0.288358 0.249481 0.290083 0.066824 0.193866 0.27514
